[{"anchors":[0.01629158854484558,-0.2632700204849243],"mixing_weights":[0.02550349570810795,0.09530147910118103,-0.19470414519309998,-0.061805032193660736,-0.07811889797449112,-0.1286306530237198,-0.09035145491361618,-0.10338428616523743,-0.011986535973846912,-0.05802825465798378,-0.028252359479665756,-0.0036978586576879025,0.09917997568845749,0.041669104248285294,0.04549966752529144,0.009888853877782822,-0.08590174466371536,0.029107164591550827,-0.0112371277064085,-0.15240758657455444,-0.017163222655653954,0.12381169199943542,-0.04885425046086311,0.0584457591176033,-0.03646344691514969,0.034874629229307175,0.03703312948346138,0.1404147744178772,0.07748252898454666,-0.042220767587423325,-0.06310436874628067,-0.1405457705259323,-0.054797932505607605,0.03785256668925285,-0.11010389029979706,-0.16685935854911804,0.0947558656334877,-0.12371166795492172,0.1050725132226944,-0.08082243800163269,-0.0017007264541462064,0.06610001623630524,-0.020331641659140587,-0.04997666925191879,-0.06733471900224686,-0.09844107180833817,0.17273901402950287,0.03559873625636101,0.0779184103012085,-0.07026974111795425,-0.03567218780517578,0.10325074195861816,0.042538803070783615,-0.004881120752543211,0.026320338249206543,0.14605367183685303,-0.06355291604995728,0.04240696132183075,-0.11968497186899185,0.01616618223488331,0.010131276212632656,-0.16757413744926453,0.022747589275240898,-0.08158895373344421,0.039595551788806915,-0.06329157203435898,-0.027738802134990692,-0.021048029884696007,0.1085822805762291,-0.04870777577161789,0.0039739832282066345,-0.11288483440876007,-0.07556048035621643,-0.004109422210603952,0.1400211900472641,0.004574110731482506,0.06895684450864792,-0.05631445720791817,-0.12341249734163284,0.0399044007062912,-0.05365782231092453,-0.00953163392841816,-0.16242347657680511,-0.049002550542354584,0.1886804848909378,-0.152587890625,0.0742800310254097,0.012307846918702126,0.038953594863414764,0.06122993677854538,-0.09273498505353928,0.13063868880271912,0.024194039404392242,0.037953801453113556,-0.011291495524346828,0.15028724074363708,0.06724818050861359,0.00012484673061408103,0.10342136770486832,-0.1953420639038086,0.08752726018428802,-0.21521860361099243,-0.12064588069915771,0.14881707727909088,0.0967211052775383,0.041114889085292816,-0.004417418502271175,0.11333689838647842,-0.04475463181734085,0.07691949605941772,-0.07779984176158905,-0.061917487531900406,-0.142526775598526,0.12805257737636566,-0.1319291591644287,0.06983321905136108,0.05689002946019173,-0.0869433656334877,-0.04780956730246544,0.0579526461660862,0.10750662535429001,-0.243770033121109,0.08045828342437744,-0.06817873567342758,0.09965809434652328,0.04305600747466087,0.05394101142883301,0.11369189620018005,-0.06411785632371902,-0.1742168515920639,-0.20663946866989136,0.0024773944169282913,-0.0024642276111990213,0.050502028316259384,0.07724346965551376,-0.0014272158732637763,0.1103176698088646,-0.04190714657306671,-0.0715850293636322,-0.15779268741607666,-0.05225679650902748,0.1552770435810089,-0.08478689193725586,0.14219041168689728,-0.17515908181667328,0.09170068055391312,0.06359262764453888,-0.029326995834708214,-0.21768493950366974,0.15268316864967346,-0.001172491698525846,0.09399208426475525,-0.17417927086353302,-0.047451045364141464,0.08890911191701889,-0.09996005892753601,-0.11029060184955597,-0.14744506776332855,0.010607145726680756,-0.011044842191040516,-0.00033134553814306855,0.07609009742736816,0.06674250215291977,-0.10709598660469055,0.004659688100218773,0.1102261170744896,0.054051972925662994,-0.08459268510341644,0.04943375289440155,-0.06250571459531784,0.11110791563987732,0.16760586202144623,0.035605110228061676,-0.03659598529338837,-0.08810083568096161,-0.036212336272001266,-0.20821154117584229,-0.15790383517742157,-0.06711754202842712,-0.1810714453458786,0.039088428020477295,0.03324536979198456,0.1358409970998764,-0.1084282323718071,-0.052130743861198425,-0.008450930006802082,-0.11777569353580475,-0.0009041447192430496,-0.20059053599834442,-0.17542026937007904,0.05090344697237015,-0.04305008798837662,-0.10067936033010483,0.06500918418169022,0.037761274725198746,-0.027175938710570335,0.02831372059881687,-0.2323821485042572,0.06804877519607544,-0.055275365710258484,0.0009603450889699161,0.02300197072327137,0.02045413851737976,0.027597341686487198,0.11763704568147659,0.1851813644170761,-0.04266993701457977,0.01658662036061287,0.0924992635846138,-0.023184942081570625,0.03688544034957886,-0.1873980164527893,-0.09636984020471573,0.118152916431427,0.13814136385917664,0.13645943999290466,0.18622857332229614,-0.06502662599086761,-0.11681030690670013,-0.045362021774053574,0.005395600106567144,0.16987334191799164,0.13252046704292297,-0.046446170657873154,0.13086649775505066,0.15331126749515533,0.04978976398706436,0.0826483890414238,0.09718497097492218,0.04426286369562149,0.025127645581960678,0.07281408458948135,0.042446330189704895,-0.030682062730193138,-0.042707283049821854,-0.10026232153177261,-0.0782247856259346,-0.018966302275657654,-0.05502716451883316,-0.010080739855766296,-0.0702105388045311,-0.05168823152780533,0.027227645739912987,-0.07053247094154358,0.019965017214417458,-0.04818199574947357,-0.04973326250910759,0.02260350063443184,0.031177878379821777,-0.02362760156393051,0.014690505340695381,-0.07939383387565613,0.109083391726017,0.03298364579677582,-0.1319120228290558,0.05530517175793648],"L_params":[20.399045944213867,1.2470420598983765,18.46180534362793]},{"anchors":[0.6947029829025269,0.29864999651908875],"mixing_weights":[-0.05434541776776314,-0.14414888620376587,0.011464952491223812,-0.06137099862098694,0.12285725027322769,0.016806982457637787,0.03249073028564453,-0.29375582933425903,-0.043292831629514694,-0.0160402599722147,-0.03709836304187775,0.0759955644607544,-0.1478925496339798,-0.08367667347192764,0.07903112471103668,-0.09902802854776382,-0.09857150912284851,-0.003197117242962122,0.0022127539850771427,-0.03516625612974167,0.021157752722501755,-0.11887480318546295,-0.1410522758960724,0.0968921110033989,-0.012452922761440277,0.10583682358264923,0.09962859004735947,-0.015100257471203804,-0.05246222764253616,0.0868237093091011,0.0065846070647239685,-0.0642961710691452,0.11108247935771942,-0.0353049598634243,0.22007083892822266,-0.052980270236730576,0.20340269804000854,0.10847923904657364,0.011667232029139996,0.007733972743153572,0.14736200869083405,0.07809563726186752,-0.06717592477798462,0.21995168924331665,-0.14048145711421967,0.15588751435279846,-0.0638350173830986,-0.018514292314648628,-0.1453041136264801,-0.20322111248970032,0.10324668884277344,-0.09084780514240265,0.00032798759639263153,-0.231660395860672,0.17211130261421204,-0.06920528411865234,-0.19854910671710968,0.10310028493404388,0.027220744639635086,-0.14557182788848877,0.17947356402873993,0.15411584079265594,-0.1597738116979599,0.12166965007781982,0.07574395090341568,0.07987377792596817,0.13949741423130035,-0.10723057389259338,0.010969270952045918,-0.11505173146724701,0.24343083798885345,-0.07892485707998276,0.1876824051141739,0.16032184660434723,-0.018075333908200264,-0.060405272990465164,-0.051708441227674484,0.06933475285768509,0.18857130408287048,-0.06465979665517807,-0.05193021148443222,0.02239318937063217,-0.011205874383449554,-0.10920783132314682,-0.07537049800157547,0.016715552657842636,-0.004821225069463253,0.13217377662658691,-0.036851122975349426,-0.016153592616319656,-0.048820968717336655,0.1874825656414032,0.1706334501504898,-0.04564003273844719,-0.16857723891735077,0.07472967356443405,0.18332473933696747,-0.09808878600597382,-0.035345885902643204,-0.029461786150932312,-0.192603200674057,-0.044013142585754395,0.1527974158525467,0.15030349791049957,0.2497391402721405,0.13115932047367096,-0.07203850895166397,-0.04974588751792908,-0.030359487980604172,0.11691678315401077,-0.15963192284107208,-0.06067556142807007,-0.1175982803106308,-0.03550870344042778,0.015699798241257668,0.09292979538440704,0.12555614113807678,0.16705921292304993,0.10637234896421432,-0.03364266827702522,0.07806126773357391,0.05271366983652115,-0.15172436833381653,-0.16611048579216003,-0.050156693905591965,0.05038657784461975,-0.05875781923532486,-0.12558867037296295,0.14713513851165771,0.011517414823174477,-0.024305377155542374,0.16572493314743042,-0.07021554559469223,-0.00023240543669089675,0.08491894602775574,0.09115089476108551,0.05754722282290459,-0.09292140603065491,0.14007167518138885,-0.038926344364881516,0.08022518455982208,0.079937644302845,-0.2748843729496002,0.1828087866306305,-0.025541206821799278,0.18943490087985992,0.05020645633339882,-0.01219409704208374,0.23012889921665192,0.10570364445447922,-0.10773835331201553,0.03806404024362564,0.12049132585525513,-0.1507534384727478,-0.19757986068725586,-0.008906911127269268,0.17482276260852814,0.2815153896808624,0.004828449338674545,-0.09902831166982651,0.1154426783323288,-0.12402104586362839,0.11175509542226791,-0.05740178003907204,-0.016509750857949257,0.024096688255667686,-0.009763414971530437,-0.008224835619330406,0.020182544365525246,-0.01595793291926384,-0.06492991745471954,0.0569894015789032,0.1201164498925209,-0.11110448837280273,0.08057849109172821,-0.00010776270210044459,0.0187027957290411,0.10488371551036835,0.10891003906726837,0.16341057419776917,-0.04552314057946205,-0.09035224467515945,0.06068950518965721,-0.03642150014638901,0.004134327173233032,-0.17272667586803436,-0.08153244107961655,0.01636888086795807,-0.08776303380727768,-0.005710543133318424,-0.22996236383914948,-0.07894960045814514,-0.17240233719348907,0.10726206749677658,-0.005995534360408783,0.04050442948937416,-0.0659991055727005,0.02058623544871807,0.1526591032743454,0.07273523509502411,0.08282586932182312,0.01198011264204979,0.0840023085474968,0.005977049004286528,0.018791308626532555,-0.12030835449695587,-0.1900475174188614,-0.16590289771556854,0.21128317713737488,0.09941977262496948,0.08326718956232071,0.058035824447870255,-0.061005234718322754,-0.047562286257743835,-0.07396450638771057,0.02961590886116028,-0.05327504128217697,0.04220607876777649,0.07703209668397903,0.0634106919169426,-0.0647573247551918,0.12349504977464676,0.1937052458524704,-0.08587796986103058,-0.2853240966796875,-0.1128198504447937,0.07103059440851212,0.06537140905857086,0.09629927575588226,0.1621343493461609,0.010709600523114204,-0.168070986866951,-0.007896212860941887,-0.0639202892780304,0.014636563137173653,0.0480956993997097,0.1404140144586563,-0.06805163621902466,0.08575651794672012,-0.16222360730171204,0.17005515098571777,-0.0012902774615213275,0.12971708178520203,-0.2203112244606018,0.030843108892440796,-0.21975922584533691,0.13314631581306458,-0.0042586433701217175,-0.09408602118492126,0.07473471760749817,0.05994405597448349,-0.09987220168113708,0.011430383659899235,-0.12198851257562637,-0.03708828240633011,-0.07970882207155228],"L_params":[19.673118591308594,-0.32480689883232117,12.464078903198242]},{"anchors":[0.15450605750083923,0.25124433636665344],"mixing_weights":[-0.004229482728987932,0.17129196226596832,-0.06119298189878464,-0.006119397468864918,-0.21050739288330078,-0.18921636044979095,-0.15216277539730072,0.041969623416662216,-0.24978844821453094,0.0431777760386467,-0.014243862591683865,0.07341661304235458,-0.12133737653493881,-0.11487019807100296,0.057716406881809235,-0.003170883748680353,-0.014888161793351173,0.1161995679140091,0.07238579541444778,0.14696229994297028,-0.1497512310743332,-0.030231930315494537,0.02677098475396633,-0.008353877812623978,0.09097098559141159,0.1520525962114334,-0.147650346159935,0.15430277585983276,-0.03877224400639534,-0.12349774688482285,-0.09309002757072449,-0.18207040429115295,-0.16432441771030426,0.03256997466087341,0.051376696676015854,0.18861234188079834,0.052992384880781174,-0.03577626869082451,0.06591480225324631,-0.06748158484697342,-0.13561579585075378,-0.12400886416435242,0.07692846655845642,0.10918033123016357,-0.031879108399152756,-0.20098724961280823,0.010477562434971333,-0.05035761743783951,0.05810777097940445,0.05612333118915558,-0.08484352380037308,-0.04457264393568039,-0.1737494170665741,-0.11970682442188263,-0.04177813231945038,-0.20402155816555023,0.08757053315639496,-0.17254482209682465,-0.07320202887058258,-0.02744135446846485,0.10371162742376328,-0.0562862753868103,0.023597367107868195,-0.19240516424179077,0.0770794227719307,-0.14390017092227936,-0.03982647508382797,0.09861044585704803,-0.04253097623586655,0.06914674490690231,-0.2143981009721756,0.07411828637123108,-0.11425702273845673,-0.058909546583890915,-0.0005358441849239171,0.11142104119062424,-0.0576975978910923,-0.04810429736971855,-0.059150394052267075,-0.2191454917192459,-0.001801060396246612,-0.10891363024711609,0.053691498935222626,0.0055147758685052395,-0.05167710781097412,-0.02696532942354679,-0.05392741039395332,-0.03279934078454971,-0.05623111501336098,-0.021563051268458366,-0.1928507387638092,-0.09726160764694214,-0.03937648609280586,-0.20858363807201385,0.05930981785058975,-0.18302246928215027,0.005018389318138361,-0.024587556719779968,0.028543919324874878,-0.028750045225024223,-0.08249060064554214,-0.08440597355365753,-0.04162526875734329,-0.04452564939856529,0.1449790596961975,-0.24601565301418304,-0.028156129643321037,-0.09915541857481003,0.13199925422668457,0.1523113250732422,0.04639897868037224,0.18806754052639008,0.020501337945461273,0.018890824168920517,0.05820855498313904,0.16584652662277222,0.05089303106069565,0.043517641723155975,-0.017263265326619148,0.03576820716261864,0.16664285957813263,0.1273016482591629,0.10013377666473389,-0.1937546283006668,0.3073851466178894,0.10157186537981033,-0.13865728676319122,-0.005015991162508726,0.03714876249432564,-0.08875222504138947,0.015226065181195736,-0.12031754851341248,0.10546540468931198,0.00015541212633252144,-0.07562839984893799,0.03143925219774246,0.03832761570811272,-0.2812301218509674,-0.0915883406996727,0.012084751389920712,0.07344378530979156,-0.06670930236577988,-0.12541848421096802,0.03907118737697601,0.20504127442836761,0.006360065191984177,0.11651965230703354,-0.20285920798778534,-0.03815757483243942,0.08767919987440109,0.039519309997558594,-0.03253240883350372,-0.07630417495965958,-0.06943507492542267,0.0813596323132515,-0.05142354592680931,0.06092024967074394,0.14209753274917603,-0.14854346215724945,0.10092595964670181,0.021109087392687798,-0.0865124836564064,0.0623706616461277,-0.05917457118630409,0.028105104342103004,0.02621341310441494,0.027293359860777855,0.10826730728149414,0.1617225557565689,-0.04887596517801285,0.0710991844534874,0.02308368869125843,-0.0713815987110138,-0.007441229186952114,0.016781555488705635,0.013017925433814526,0.0249063428491354,-0.04298989102244377,-0.09506380558013916,0.003546680323779583,0.09848663210868835,-0.19062909483909607,-0.12765254080295563,0.016612503677606583,0.0070887659676373005,0.11201048642396927,-0.1049109548330307,-0.09468399733304977,-0.024203073233366013,-0.01177635882049799,0.04666392132639885,-0.12073313444852829,-0.08568688482046127,-0.04240269958972931,-0.10752270370721817,-0.14573627710342407,-0.07854840904474258,-0.12720394134521484,0.03449445590376854,-0.0841294601559639,-0.1875595897436142,0.0688169077038765,-0.11455611884593964,-0.09761077165603638,0.022967156022787094,-0.052161842584609985,0.1783006489276886,-0.03141898289322853,-0.014156557619571686,-0.0021004299633204937,-0.027516156435012817,0.09691083431243896,0.018703190609812737,-0.03756476566195488,-0.02055441029369831,-0.0026318456511944532,-0.08072435110807419,-0.08975018560886383,-0.04571334272623062,0.11165393143892288,0.011748211458325386,0.10021882504224777,-0.015783891081809998,0.030129684135317802,-0.0988389328122139,0.022126397117972374,0.12416758388280869,-0.15050199627876282,-0.0887644812464714,0.008459975942969322,0.12259473651647568,0.10057524591684341,0.09114275127649307,0.13241659104824066,0.3785321116447449,0.11392606049776077,-0.16484764218330383,-0.04564258083701134,-0.14680983126163483,-0.07114573568105698,-0.03700575232505798,-0.2916608154773712,0.18610969185829163,-0.07949148118495941,0.3515676259994507,-0.03750506043434143,0.12120849639177322,0.06324239075183868,0.03354815021157265,0.09312483668327332,-0.15734460949897766,0.061243973672389984,0.030839065089821815,-0.1443178355693817,-0.02031027339398861,-0.03972267732024193],"L_params":[15.934744834899902,0.47471675276756287,15.304085731506348]},{"anchors":[0.4575873017311096,-0.6014699935913086],"mixing_weights":[-0.1584630161523819,-0.10018447786569595,0.05130451172590256,-0.09349354356527328,0.0894654169678688,0.0007134992629289627,-0.11483947932720184,0.05949169769883156,-0.12740911543369293,-0.14921042323112488,0.13923993706703186,0.08029935508966446,-0.18046148121356964,0.06711956113576889,-0.055421315133571625,0.16120439767837524,0.013601369224488735,0.004749234765768051,0.13293884694576263,-0.132109135389328,0.19164687395095825,0.042249895632267,-0.1777161955833435,0.11590021103620529,-0.05693555623292923,-0.15612176060676575,-0.09387733042240143,-0.03450540080666542,0.033753443509340286,0.03842843323945999,0.03753260150551796,-0.2801993787288666,0.06943315267562866,-0.03102610446512699,0.10597975552082062,-0.05244572088122368,-0.09069804102182388,0.020358895882964134,0.06316415220499039,0.03300706297159195,-0.10570721328258514,-0.044362302869558334,-0.11352398246526718,-0.05334281921386719,-0.023981846868991852,-0.012269078753888607,0.10308182239532471,-0.10521578043699265,-0.10728124529123306,-0.0075636920519173145,0.08781462162733078,-0.08088953047990799,-0.08239708095788956,0.09298861026763916,0.10852325707674026,0.1651851236820221,0.07376234233379364,0.1911938190460205,0.061402760446071625,0.050696324557065964,0.09519986808300018,-0.047588054090738297,0.06399513781070709,0.15250073373317719,0.10086763650178909,0.08364944159984589,-0.016577545553445816,-0.0007134205079637468,-0.10435101389884949,0.07690884917974472,0.053920283913612366,0.01338263414800167,0.05985881760716438,0.011052615009248257,-0.20031778514385223,-0.09727155417203903,-0.035988204181194305,0.09294847398996353,-0.14208652079105377,-0.06216860190033913,-0.13226217031478882,-0.0580366812646389,0.058501388877630234,0.010780020616948605,-0.07307560741901398,0.015638306736946106,-0.10223908722400665,0.12161784619092941,0.13018149137496948,-0.11148539930582047,0.1470065712928772,-0.10550439357757568,-0.011561238206923008,-0.05114663764834404,-0.02611042745411396,-0.03721040487289429,-0.09651950746774673,-0.021102238446474075,0.09975304454565048,0.20532958209514618,-0.008252918720245361,0.07532081007957458,0.17694662511348724,0.1705627292394638,-0.09740281850099564,0.0858529582619667,-0.10063429921865463,-0.04610377177596092,-0.043220411986112595,-0.06940322369337082,0.054509904235601425,-0.15129093825817108,-0.08622672408819199,0.15751269459724426,0.16730646789073944,-0.1835334151983261,0.047983407974243164,-0.08355176448822021,0.047773540019989014,0.024511173367500305,0.1537836790084839,0.19764724373817444,0.017378922551870346,0.1676185578107834,0.027714047580957413,-0.23053203523159027,0.026546048000454903,-0.25472119450569153,0.030357597395777702,0.041390903294086456,0.21459174156188965,-0.03402354195713997,-0.01005505584180355,-0.13391099870204926,0.18556754291057587,-0.028402121737599373,-0.07924574613571167,-0.05924820154905319,-0.02997714839875698,0.13779647648334503,0.13712826371192932,0.000485882192151621,-0.12667275965213776,-0.12487475574016571,0.04500909522175789,0.049191951751708984,-0.24673905968666077,0.05105346441268921,0.039706140756607056,0.03339822217822075,-0.19814886152744293,0.012163692153990269,-0.08562302589416504,-0.06115530803799629,-0.08550097048282623,0.00571142602711916,-0.01327535044401884,0.052822500467300415,-0.14926834404468536,0.004420978017151356,-0.061790984123945236,0.10634560883045197,0.06856127828359604,0.018010646104812622,-0.10635136067867279,0.07863909751176834,-0.19391992688179016,0.17237837612628937,0.0029774196445941925,0.006436089985072613,0.011385436169803143,-0.023532476276159286,-0.10687100887298584,0.021970106288790703,-0.29239964485168457,-0.07514860481023788,0.07941662520170212,0.09596406668424606,0.023429052904248238,-0.0638238713145256,-0.09652411937713623,-0.028858020901679993,0.05797329545021057,0.022913958877325058,0.14719754457473755,0.05877964198589325,0.052497200667858124,-0.3010437488555908,0.09981818497180939,-0.09120970964431763,0.1497805416584015,-0.05507751554250717,0.06682157516479492,0.1284094750881195,-0.17490914463996887,0.21047185361385345,-0.01833329163491726,0.06887126713991165,-0.12232638895511627,0.20119428634643555,-0.029953204095363617,-0.0354468859732151,-0.0997956395149231,0.07316000014543533,0.11352214962244034,-0.24041804671287537,0.11280027031898499,-0.05133233591914177,-0.21429938077926636,-0.05200083926320076,-0.00987791083753109,-0.1877671331167221,-0.0021742484532296658,-0.18965505063533783,0.13810494542121887,0.09721256792545319,-0.17178530991077423,0.054656095802783966,0.016309523954987526,0.022497832775115967,0.032914452254772186,0.07934310287237167,-0.02316189929842949,0.07259812206029892,0.011138183996081352,0.1073376014828682,0.1044526994228363,-0.10612914711236954,-0.15469300746917725,0.04298445209860802,-0.051833625882864,-0.19575077295303345,0.015083947218954563,-0.2538272738456726,-0.011170531623065472,0.1344069391489029,0.2507396340370178,-0.12504294514656067,-0.06281401216983795,0.1444462537765503,0.08141758292913437,-0.17182180285453796,-0.13599054515361786,0.08903594315052032,-0.06377458572387695,-0.01911376230418682,0.0595349557697773,-0.018933342769742012,-0.2049165666103363,-0.1045447364449501,-0.09988507628440857,0.11068645864725113,-0.12246063351631165,-0.14888358116149902,0.149855837225914,-0.11851631850004196],"L_params":[16.264333724975586,0.3219397962093353,18.986766815185547]},{"anchors":[-0.9815892577171326,0.4346068203449249],"mixing_weights":[0.1035916730761528,-0.0051643699407577515,0.033891428261995316,0.06248699501156807,-0.08292477577924728,0.055321358144283295,0.04291023686528206,-0.040219586342573166,-0.029910800978541374,0.012610400095582008,0.0411505252122879,-0.2622890770435333,-0.014296147041022778,0.06756996363401413,-0.15264111757278442,0.04499317333102226,0.041101325303316116,0.17160870134830475,0.203866645693779,0.11591757088899612,-0.036368101835250854,0.10178569704294205,-0.25238388776779175,-0.012137819081544876,-0.0558386966586113,-0.010608644224703312,-0.001997370505705476,0.21639393270015717,0.020476292818784714,0.0403510257601738,-0.22346749901771545,-0.11663153022527695,-0.021516796201467514,-0.17712192237377167,0.05090545117855072,0.0018040029099211097,-0.12826532125473022,0.01794782094657421,-0.12011858075857162,-0.002372869523242116,0.10320127755403519,0.12022769451141357,-0.07019941508769989,0.08475620299577713,-0.07969388365745544,0.19225439429283142,0.06649255752563477,-0.15664175152778625,0.04578527808189392,0.2054511457681656,0.08546528965234756,-0.1442495882511139,0.05633270740509033,-0.11222460120916367,-0.0011952589266002178,-0.05439405515789986,-0.13310840725898743,0.04891171678900719,0.04546540975570679,0.018562644720077515,-0.14628010988235474,0.01844779960811138,0.010997452773153782,-0.10542533546686172,0.14361228048801422,-0.05821816623210907,-0.04059294983744621,-0.04015408828854561,-0.1317858099937439,0.02930416911840439,0.14392678439617157,0.01430338155478239,-0.1295316517353058,-0.13066387176513672,-0.14488829672336578,-0.06463979929685593,-0.0697690099477768,0.13064824044704437,0.059505511075258255,-0.16676537692546844,-0.08571233600378036,-0.02717597596347332,0.026318062096834183,-0.026860656216740608,-0.1107797846198082,-0.176589235663414,-0.1723620742559433,0.1552487313747406,-0.2332839071750641,0.09558938443660736,0.08778759092092514,0.16320577263832092,0.24490253627300262,0.12563467025756836,0.024109503254294395,0.03814433515071869,0.010764782316982746,-0.05270576849579811,0.2124507874250412,0.0731009840965271,0.13203482329845428,-0.12416296452283859,0.047231823205947876,-0.028626462444663048,-0.05338180810213089,0.13617929816246033,-0.08904493600130081,-0.044468190521001816,-0.16744422912597656,-0.06009269133210182,0.24554668366909027,0.04705752059817314,-0.08494549244642258,0.03112482838332653,0.10753338038921356,-0.195431187748909,-0.09485643357038498,-0.07519474625587463,-0.08351999521255493,0.07794902473688126,0.21396049857139587,-0.0628717690706253,-0.1415814459323883,0.059606652706861496,0.08514951914548874,-0.18450328707695007,-0.01335242297500372,-0.059719547629356384,-0.039335574954748154,-0.11173011362552643,0.1288042813539505,0.0812004879117012,-0.10616982728242874,0.2065141201019287,-0.092103973031044,0.05715269595384598,0.01031985692679882,-0.32780665159225464,0.005727911833673716,-0.12686914205551147,-0.07468980550765991,0.05086259916424751,-0.013811258599162102,0.10421428829431534,-0.20074830949306488,-0.08801421523094177,0.2566199004650116,-0.10267255455255508,0.06427539885044098,0.2516462802886963,-0.11668446660041809,-0.03975801542401314,-0.0015849909977987409,0.2448851764202118,0.015134940855205059,0.042347729206085205,-0.13946184515953064,-0.09434499591588974,-0.10517281293869019,0.03324371203780174,0.022275729104876518,0.03045225702226162,0.10835075378417969,-0.0862298458814621,0.013875877484679222,0.012195597402751446,0.04406449571251869,0.05101444944739342,0.30013707280158997,0.16628409922122955,-0.022826973348855972,0.11718299239873886,-0.020315906032919884,0.19659225642681122,-0.03775205835700035,0.0989769995212555,0.08096718788146973,-0.07205359637737274,0.07281424850225449,-0.03432247415184975,0.2372431457042694,0.022915633395314217,-0.12572190165519714,0.12174487859010696,-0.07957807183265686,-0.12669186294078827,0.07867676019668579,-0.02849395200610161,-0.008297293446958065,-0.04336276277899742,0.0481736920773983,0.045347269624471664,-0.05105174332857132,-0.0033758513163775206,0.025543125346302986,-0.11811456084251404,0.25691255927085876,0.01903892308473587,-0.11869749426841736,0.018429217860102654,-0.015242968685925007,-0.16491304337978363,-0.15043410658836365,0.1080780029296875,0.2616695165634155,-0.13806962966918945,-0.017509527504444122,-0.0511932298541069,-0.01825597696006298,0.055934980511665344,-0.06862218677997589,0.06520283967256546,-0.08150727301836014,-0.015948111191391945,-0.10076259821653366,0.057361211627721786,0.04663002863526344,0.08016254752874374,0.020467672497034073,0.10557498782873154,-0.17796555161476135,0.009799125604331493,-0.0699051022529602,-0.10378555953502655,0.1050519198179245,0.2151029258966446,0.044219113886356354,-0.0354948490858078,-0.15819653868675232,0.12025626748800278,-0.1045900359749794,0.029782965779304504,0.08598596602678299,-0.16176016628742218,0.059588197618722916,0.011319932527840137,0.08377061039209366,0.13592277467250824,-0.11758168786764145,-0.21872274577617645,0.08174217492341995,-0.006742250639945269,0.030404340475797653,0.08119037002325058,0.14646445214748383,0.022029096260666847,-0.014475150965154171,0.07967333495616913,0.05879337340593338,-0.0351005420088768,-0.17178960144519806,-0.01881350204348564,-0.23677560687065125,0.12962296605110168,0.03922208026051521,0.1348477154970169],"L_params":[17.94634437561035,0.10462774336338043,15.441872596740723]},{"anchors":[0.0915340855717659,0.00405493751168251],"mixing_weights":[-0.14449404180049896,0.013932976871728897,0.027628052979707718,0.021891620010137558,-0.08860871195793152,-0.0076500605791807175,0.0887180045247078,-0.003987383563071489,0.004290601704269648,0.051510073244571686,0.15599794685840607,0.035529084503650665,0.005194283556193113,-0.040897663682699203,0.14495205879211426,-0.01320741232484579,0.1225418969988823,-0.09877169877290726,-0.08451614528894424,0.0485600084066391,0.07102080434560776,0.06372429430484772,0.07797592133283615,0.05305246636271477,0.027265992015600204,-0.067271389067173,0.08551792055368423,-0.14658747613430023,-0.011217129416763783,0.005167157854884863,0.04214679077267647,0.10763856768608093,0.00031452812254428864,-0.006106482353061438,0.02818608097732067,-0.17414028942584991,-0.04825756698846817,-0.12244849652051926,0.04970073327422142,-0.04247134551405907,-0.14480586349964142,-0.03296223655343056,0.23731786012649536,0.030359288677573204,-0.18846754729747772,-0.05359860882163048,-0.01123404037207365,-0.08808332681655884,-0.027003690600395203,-0.004372570663690567,0.09551668167114258,0.11773733794689178,0.14587759971618652,0.14562761783599854,-0.10355505347251892,0.04085967689752579,-0.08310338109731674,-0.027628686279058456,0.0732048898935318,-0.11035186052322388,0.15221068263053894,-0.020265648141503334,-0.06039435788989067,0.054807811975479126,-0.037530068308115005,0.07716802507638931,-0.07445117831230164,-0.10250739008188248,-0.04356760159134865,0.02353258803486824,0.09591928124427795,-0.025295259431004524,-0.12540008127689362,-0.07624068111181259,0.1337958425283432,0.2231629341840744,-0.17995086312294006,-0.17925125360488892,0.04075893387198448,0.15920086205005646,-0.13773749768733978,0.04256840795278549,0.06252267956733704,0.08471240103244781,-0.04992635175585747,-0.05589841306209564,-0.07524612545967102,-0.1469201296567917,-0.01313846092671156,0.17220737040042877,-0.13349765539169312,-0.03218620643019676,0.051379330456256866,0.05249720439314842,0.009235876612365246,0.07630214840173721,0.050925616174936295,-0.028139738366007805,-0.1667143553495407,-0.04079824313521385,-0.03883425146341324,-0.02996356226503849,-0.05229101702570915,0.014058416709303856,0.05783646181225777,0.021205682307481766,0.044879961758852005,-0.053332261741161346,0.04675072059035301,0.0054190377704799175,-0.07800813019275665,-0.060009680688381195,-0.01573428325355053,-0.1446918398141861,-0.09414655715227127,-0.05706203356385231,0.04352547600865364,0.06102926284074783,-0.04063035547733307,-0.14736522734165192,-0.04838911071419716,-0.04843708872795105,0.08217111229896545,-0.017429310828447342,0.0858643651008606,0.07950414717197418,0.09743708372116089,-0.01408707071095705,0.17308814823627472,-0.03206171840429306,-0.0956352949142456,0.2166985422372818,0.016963345929980278,0.031634677201509476,-0.08033759891986847,-0.20412151515483856,0.02290971204638481,0.0828605517745018,-0.13934451341629028,0.029819393530488014,-0.03355606272816658,-0.17043429613113403,0.1802302449941635,-0.1804875284433365,0.04081504046916962,-0.006894351914525032,-0.034269802272319794,-0.008155466057360172,-0.0028071156702935696,0.07495179027318954,-0.018504714593291283,0.024442439898848534,-0.13463418185710907,-0.11905577033758163,-0.15979349613189697,-0.04268385469913483,-0.099956214427948,0.07367190718650818,0.11765290051698685,0.17019283771514893,-0.07270067930221558,-0.008601006120443344,0.0017238903092220426,0.057904988527297974,-0.06148799508810043,0.05407432094216347,0.2197941690683365,-0.116342693567276,0.12096304446458817,-0.0763888731598854,0.14300675690174103,0.10441315174102783,0.19863441586494446,-0.09280280023813248,-0.05689328536391258,0.10213849693536758,-0.03747484087944031,0.01788768544793129,-0.21699480712413788,-0.12408681213855743,0.11403485387563705,0.18084949254989624,-0.15819533169269562,-0.041232600808143616,0.08441798388957977,0.13021831214427948,-0.02957644872367382,0.009142032824456692,0.0041699460707604885,-0.006367282941937447,-0.020885471254587173,0.159787118434906,-0.195907860994339,0.09689579904079437,-0.03725311905145645,0.0829276517033577,0.1586419641971588,-0.02934550866484642,0.031128324568271637,0.21576686203479767,0.16886332631111145,-0.150567889213562,-0.016378914937376976,-0.20486637949943542,0.17828357219696045,0.020164815708994865,-0.14729173481464386,0.12261119484901428,-0.0750456377863884,0.01691065914928913,-0.09627620875835419,0.027448317036032677,-0.07312027364969254,0.04006803780794144,0.19947601854801178,0.07621174305677414,-0.08923023194074631,-0.1096588522195816,-0.17172425985336304,0.25513961911201477,-0.11130213737487793,0.13452716171741486,0.07285989075899124,0.0712289959192276,-0.00028603110695257783,-0.06003100797533989,-0.026055049151182175,0.01109991129487753,0.10671793669462204,0.12035471200942993,-0.08178675919771194,0.2914479076862335,-0.16007275879383087,-0.22435727715492249,-0.05424724891781807,-0.048073846846818924,-0.12013298273086548,-0.005146254785358906,0.09974920004606247,0.06738407909870148,-0.07545052468776703,0.07263925671577454,-0.15281210839748383,-0.04513728246092796,-0.32266128063201904,0.1543237417936325,0.03159751370549202,0.2111654430627823,0.163611501455307,-0.08251189440488815,-0.1344616562128067,-0.07521623373031616,-0.021500853821635246,-0.08720282465219498,-0.036594457924366,0.04978238046169281],"L_params":[15.035686492919922,-0.10299749672412872,19.836395263671875]},{"anchors":[0.7255678176879883,0.08536306023597717],"mixing_weights":[-0.05412812530994415,-0.08453810214996338,0.11548907309770584,0.08377314358949661,0.09171711653470993,0.16099844872951508,0.07206360250711441,0.07279999554157257,0.01801314949989319,0.05844123661518097,0.1445082277059555,-0.17964190244674683,-0.012552168220281601,0.02215518243610859,0.15877550840377808,0.04657091945409775,0.041374556720256805,0.16887801885604858,0.09702543169260025,-0.025576233863830566,0.022634413093328476,-0.02840919978916645,-0.2278064340353012,0.043371040374040604,0.08351162075996399,-0.009853801690042019,-0.1574222594499588,0.16502153873443604,-0.09087114036083221,-0.06952927261590958,-0.3078409433364868,0.11097149550914764,0.05355619266629219,-0.013521089218556881,-0.039843231439590454,-0.0031879073940217495,0.16180036962032318,-0.13773615658283234,-0.1764906644821167,-0.025762278586626053,-0.0010272343643009663,0.03526197746396065,-0.13991117477416992,0.020429475232958794,-0.013869131915271282,0.04836539551615715,-0.07293392717838287,0.25787031650543213,-0.06071629747748375,0.023307152092456818,0.04572908207774162,0.015292209573090076,-0.031269144266843796,0.11668513715267181,-0.00981890968978405,-0.17320780456066132,-0.08832859992980957,0.16016830503940582,0.1297128051519394,0.0471557192504406,-0.19359973073005676,0.07054837793111801,-0.04001671448349953,0.07511161267757416,-0.05089174211025238,-0.13440118730068207,0.056776732206344604,0.061455998569726944,0.15875136852264404,0.03127441182732582,-0.11824727058410645,-0.11557221412658691,0.09122946858406067,-0.14899642765522003,0.13932564854621887,-0.17438839375972748,-0.02771478146314621,-0.2561224699020386,0.15502886474132538,-0.07454655319452286,0.11056074500083923,0.025248752906918526,0.18934237957000732,-0.16488733887672424,0.307874858379364,-0.08469077199697495,-0.09345933794975281,-0.13144879043102264,-0.07117700576782227,-0.015885289758443832,-0.16470782458782196,0.10362604260444641,0.020988652482628822,0.023172197863459587,0.03028402291238308,-0.014005009084939957,0.06017889827489853,0.09461157023906708,0.11408226937055588,-0.02379743754863739,0.07852785289287567,-0.0743933916091919,-0.02320064604282379,-0.008139872923493385,0.1225375309586525,0.09082705527544022,0.06588014215230942,-0.007104678079485893,-0.040913403034210205,-0.10599450767040253,-0.005185069516301155,-0.027931340038776398,0.09213505685329437,0.16959209740161896,0.036595821380615234,-0.0005569838685914874,0.2128400355577469,-0.08285165578126907,0.002484402619302273,-0.08895979821681976,0.11152052134275436,-0.06469231098890305,0.10859648138284683,0.21291527152061462,-0.13984914124011993,0.03525629639625549,0.08087392151355743,-0.07780197262763977,0.0055442797020077705,0.11774172633886337,-0.023910559713840485,0.03564416244626045,-0.06046576797962189,0.2427322268486023,-0.09832212328910828,0.043233297765254974,-0.20139896869659424,-0.14631636440753937,0.0801938846707344,-0.12714076042175293,0.055145543068647385,-0.11587855964899063,-0.02077290043234825,-0.03742491826415062,0.14644478261470795,-0.09876688569784164,0.10770799219608307,-0.03719474375247955,0.012429242953658104,-0.1111740916967392,0.09108196943998337,-0.03472757712006569,-0.12547126412391663,0.05501824989914894,-0.016035471111536026,-0.11203645914793015,-0.01614590547978878,-0.0034698215313255787,-0.11948399990797043,0.03567410260438919,-0.16311579942703247,0.005672906991094351,0.06135066971182823,0.08759303390979767,-0.022760991007089615,0.023088719695806503,-0.06665384024381638,-0.09166485071182251,0.018604494631290436,0.003164001740515232,-0.07012103497982025,0.0932236909866333,0.030194537714123726,-0.009855743497610092,0.11985472589731216,-0.07143004983663559,-0.184343621134758,-0.10274199396371841,0.143966406583786,-0.057929228991270065,0.05858591943979263,-0.06818408519029617,-0.11813518404960632,-0.0003543202765285969,-0.04659668356180191,-0.05567537620663643,0.02173919789493084,0.00305833388119936,0.00415290892124176,0.1558016836643219,0.06152506172657013,0.07611550390720367,-0.01120038516819477,-0.001960436347872019,0.011554183438420296,-0.10642770677804947,0.08821314573287964,0.0007399795576930046,0.08939144015312195,-0.09116480499505997,-0.12592637538909912,-0.17364062368869781,-0.05266604572534561,-0.15360261499881744,-0.07308848947286606,0.06910554319620132,0.1598745435476303,-0.08749434351921082,0.028936872258782387,-0.012517726048827171,-0.0799030140042305,0.0036742654629051685,0.0671347826719284,-0.053489040583372116,0.049087200313806534,0.14243315160274506,-0.25853267312049866,0.17657971382141113,-0.3033159375190735,-0.02500796690583229,0.06084384024143219,-0.09665195643901825,-0.027137629687786102,-0.13698652386665344,-0.20709481835365295,0.03533186390995979,0.08016952872276306,0.15038707852363586,0.2395942062139511,0.029903803020715714,-0.12618112564086914,-0.12970410287380219,-0.01939818076789379,-0.023899473249912262,-0.03752453997731209,-0.05319330841302872,0.03573767840862274,-0.1013122946023941,-0.10433535277843475,-0.001744246226735413,-0.043850477784872055,0.16957102715969086,-0.16165657341480255,-0.007313767913728952,0.061343640089035034,-0.04112035408616066,-0.06953220814466476,0.271180659532547,0.057551633566617966,-0.03387453407049179,-0.03638877719640732,-0.004516645800322294,-0.01643838919699192,-0.07325044274330139,-0.1687391847372055,-0.07312873005867004],"L_params":[15.392598152160645,0.19365167617797852,17.109193801879883]},{"anchors":[-0.048329565674066544,-0.3376244306564331],"mixing_weights":[0.12619318068027496,0.004207725170999765,-0.020220188423991203,-0.0955013632774353,-0.031551994383335114,-0.20493875443935394,0.15954668819904327,0.10475298017263412,0.013203451409935951,0.12652255594730377,0.09217007458209991,-0.023337535560131073,0.23715688288211823,-0.13819114863872528,-0.173979714512825,0.17801766097545624,0.01033729873597622,-0.15971258282661438,-0.20818902552127838,0.0658785030245781,-0.1830858439207077,-0.1106608584523201,0.16858920454978943,-0.010467440821230412,-0.06692499667406082,-0.1376921385526657,-0.007883911952376366,0.09997396171092987,0.31110677123069763,0.08503150194883347,0.06977210938930511,-0.058377303183078766,0.10823141783475876,-0.20783348381519318,0.0750860795378685,0.14058734476566315,0.029157184064388275,0.17455193400382996,0.03347010910511017,0.08536605536937714,-0.007673453539609909,-0.12023644149303436,0.06536411494016647,0.10977643728256226,0.028280284255743027,-0.029008273035287857,0.11624203622341156,0.006579644978046417,-0.02869148924946785,0.2011350840330124,0.12221802026033401,-0.03625752031803131,-0.045856501907110214,0.023321369662880898,-0.13954317569732666,0.037942785769701004,0.10139605402946472,0.09411989152431488,0.22413252294063568,0.1734074354171753,-0.12899303436279297,0.022684307768940926,0.061190541833639145,-0.058100566267967224,0.17254498600959778,-0.03981342539191246,0.05606262758374214,-0.0006671875016763806,0.17810101807117462,0.02434971183538437,0.17132112383842468,0.1447930932044983,0.08300117403268814,0.11070980876684189,0.16905571520328522,-0.13808952271938324,-0.1060674712061882,0.04239470884203911,0.13657914102077484,-0.053726475685834885,0.017307065427303314,-0.052027322351932526,0.11119167506694794,-0.1269361525774002,0.005258494988083839,0.06855648756027222,-0.010683040134608746,-0.2839439809322357,0.13498032093048096,0.01669018529355526,0.1349533200263977,0.15650010108947754,-0.1096334233880043,0.1612520068883896,0.05429885908961296,-0.08212997019290924,-0.005030693951994181,-0.09248928725719452,-0.09422595053911209,0.05141041427850723,0.030902093276381493,-0.08435700088739395,0.19133557379245758,-0.03921511769294739,-0.15731219947338104,0.12053623050451279,-0.1272079199552536,0.05439010262489319,0.028072169050574303,-0.022537510842084885,0.10902996361255646,0.07158344984054565,0.027910953387618065,0.03298243135213852,0.14610178768634796,-0.0671989768743515,-0.004527129232883453,0.06324286758899689,-0.024584675207734108,-0.04297638311982155,-0.08335790783166885,0.030020572245121002,0.24764783680438995,-0.10770643502473831,0.02404203452169895,0.11198373883962631,-0.11717004328966141,0.15605859458446503,-0.05604226514697075,0.04541335999965668,-0.14136946201324463,0.06544510275125504,-0.010710613802075386,-0.02934473380446434,-0.09975797683000565,0.07253233343362808,0.026625510305166245,0.05045183002948761,-0.0055548627860844135,0.20384882390499115,0.05432533472776413,0.0026883836835622787,0.18514840304851532,0.13366684317588806,-0.01755504310131073,0.18369702994823456,0.026179449632763863,-0.007811658550053835,0.21569935977458954,0.061705611646175385,0.0013474259758368134,-0.03973989188671112,-0.05957723781466484,0.08220399916172028,0.08226680755615234,-0.016145622357726097,0.06467963755130768,0.026256203651428223,0.00397601118311286,-0.04845057800412178,-0.11001560091972351,0.04586189612746239,-0.030553702265024185,-0.13112686574459076,-0.04710166156291962,-0.03491004556417465,0.015976179391145706,0.10378903150558472,0.010774643160402775,0.05008061230182648,0.0679226741194725,-0.03065088577568531,0.05951111391186714,0.041950490325689316,-0.12695005536079407,-0.03749727085232735,-0.010688277892768383,-0.0023317132145166397,0.10224063694477081,0.04676042124629021,0.006464505102485418,0.02873006835579872,0.017992915585637093,-0.027178620919585228,0.11257476359605789,-0.039771001785993576,-0.08860475569963455,0.09942977130413055,-0.02126600779592991,-0.043217793107032776,0.040695708245038986,0.08856453001499176,-0.13947200775146484,0.011906326748430729,0.08724100887775421,0.15760652720928192,0.2593674957752228,0.14331494271755219,0.07750178873538971,0.10743262618780136,-0.13160206377506256,0.04424770548939705,0.06354675441980362,0.024626512080430984,-0.045776184648275375,-0.058561116456985474,-0.07834681868553162,0.02224215678870678,-0.08680453896522522,0.08402402698993683,0.09136637300252914,-0.009753596968948841,-0.0062621403485536575,0.040388524532318115,0.05350222811102867,-0.07349838316440582,0.016074324026703835,0.04017183184623718,0.0517377071082592,0.11429554969072342,0.25842514634132385,0.0584460124373436,0.015112661756575108,-0.034719426184892654,0.1055341362953186,-0.058132022619247437,0.09501105546951294,0.15329323709011078,-0.1494191735982895,0.0030806721188127995,0.16533467173576355,-0.016391342505812645,-0.044432107359170914,0.06600485742092133,-0.009003980085253716,-0.143805131316185,0.08419094979763031,-0.007260784041136503,-0.04690524935722351,0.1256214827299118,0.15366491675376892,-0.058571744710206985,-0.308932363986969,-0.06777176260948181,0.14907628297805786,0.07281100004911423,0.10262051224708557,0.006043952889740467,0.0391131155192852,0.03947094455361366,0.015608797781169415,-0.10532620549201965,0.21185976266860962,-0.0185211393982172,-0.014010567218065262,-0.033517710864543915],"L_params":[17.585298538208008,1.1715556383132935,16.70050621032715]},{"anchors":[-0.010154375806450844,0.27965691685676575],"mixing_weights":[0.016698220744729042,-0.11321470886468887,-0.15606838464736938,0.08804167062044144,-0.09258297085762024,0.017339570447802544,0.0285179503262043,0.0744076520204544,-0.02646314725279808,-0.058662716299295425,0.06592056155204773,-0.12203773856163025,-0.13193820416927338,0.07624200731515884,0.07145337760448456,-0.110333152115345,0.047580260783433914,-0.06701592355966568,-0.015422388911247253,-0.12260760366916656,-0.07962502539157867,-0.21592631936073303,0.18030698597431183,-0.07153000682592392,0.06919244676828384,0.00838549342006445,0.23411299288272858,-0.026436712592840195,-0.0037202639505267143,0.12591756880283356,-0.18278896808624268,-0.0723375454545021,-0.11735028773546219,-0.14272312819957733,-0.06282658874988556,-0.0853743627667427,0.095115527510643,-0.07274767756462097,0.0838073119521141,-0.02177373692393303,0.026837673038244247,0.1013629361987114,0.05478942394256592,0.0778496265411377,0.034595683217048645,0.049181822687387466,-0.1453838050365448,0.1433013379573822,0.0017705752979964018,0.11631718277931213,0.17076608538627625,-0.13803556561470032,-0.024715060368180275,-0.06583837419748306,0.17713499069213867,0.01933121494948864,0.0844518318772316,0.077897809445858,0.07995003461837769,0.06328830122947693,0.008303487673401833,0.04498203843832016,0.14315970242023468,-0.05792725086212158,0.05154845118522644,0.17307023704051971,0.023652847856283188,0.08518707007169724,-0.12676779925823212,0.0078889774158597,-0.1135745719075203,0.28756895661354065,0.03442438691854477,0.054830726236104965,-0.03873880207538605,-0.05635860189795494,0.08924932032823563,-0.15903230011463165,-0.08378614485263824,-0.18161579966545105,-0.0532306469976902,0.11653535068035126,-0.0010413124691694975,-0.08821035921573639,0.014930959790945053,-0.214682936668396,0.11582379043102264,0.05123080685734749,-0.003440335625782609,-0.1068718433380127,0.11804329603910446,-0.1308109164237976,-0.08854585140943527,0.0942748412489891,0.09359073638916016,-0.09099846333265305,0.07145491242408752,0.1815575808286667,-0.07592815160751343,0.12978793680667877,-0.05629425495862961,-0.013593379408121109,-0.07317625731229782,-0.05989040806889534,-0.21596607565879822,0.06031317263841629,-0.10597877949476242,0.018975187093019485,-0.09836146235466003,-0.13715112209320068,0.12355998158454895,0.1436445564031601,0.029601184651255608,0.08678802847862244,-0.029544228687882423,0.1754836142063141,-0.08934611082077026,0.013379031792283058,0.05339524522423744,-0.0016964735696092248,-0.1233200654387474,-0.059965960681438446,-0.006709171459078789,0.21793557703495026,-0.020975656807422638,-0.06080646440386772,-0.013750008307397366,-0.0014174729585647583,-0.005634599830955267,0.0628756433725357,0.19283314049243927,0.01932191662490368,-0.14473135769367218,-0.05111705884337425,0.15098556876182556,0.10955836623907089,-0.052908748388290405,0.02812628634274006,-0.0182973500341177,-0.03088804893195629,0.01345341932028532,-0.1422778069972992,-0.06150674447417259,0.08670570701360703,0.2884432077407837,-0.04425801336765289,0.09304925799369812,0.032500460743904114,0.1765144020318985,0.02522611990571022,-0.007682461757212877,0.08304257690906525,0.14704187214374542,0.040996454656124115,-0.09702955186367035,-0.2506982386112213,-0.1440032422542572,-0.009466912597417831,0.24101001024246216,-0.1428055614233017,0.051996275782585144,-0.007641772739589214,0.007497864775359631,0.01889934204518795,-0.08861812949180603,0.0968673825263977,-0.0760735496878624,0.1490282416343689,0.11191319674253464,0.06496236473321915,0.2759318947792053,-0.15336954593658447,-0.09182683378458023,0.049090515822172165,0.0073160030879080296,-0.11358103156089783,0.011268183588981628,0.07393726706504822,-0.05935850739479065,-0.046203888952732086,0.08783930540084839,-0.0031997589394450188,-0.07962207496166229,0.05456037446856499,-0.2041933685541153,-0.0560084730386734,-0.130633145570755,-0.13318650424480438,-0.03424740210175514,0.17172805964946747,-0.015197240747511387,-0.07624565064907074,0.06492659449577332,-0.08370900899171829,-0.20440760254859924,0.04060898348689079,-0.2403845191001892,0.17413035035133362,0.07629270106554031,-0.1910576969385147,-0.1377997249364853,-0.07957908511161804,0.03049306571483612,0.13126911222934723,-0.027386117726564407,-0.02610149048268795,-0.020264165475964546,0.06584923714399338,0.049531176686286926,-0.14990201592445374,0.11017466336488724,-0.11024562269449234,-0.07578995078802109,-0.12949296832084656,-0.10344167053699493,-0.019762128591537476,-0.0036610940005630255,0.2131045013666153,-0.18677225708961487,-0.002552405232563615,-0.17335796356201172,0.11346916854381561,0.0043020606972277164,0.025951644405722618,0.07315091043710709,-0.045654430985450745,0.01970212534070015,0.11973755061626434,-0.0758630782365799,0.022321762517094612,-0.0859697163105011,0.02269425243139267,-0.009748761542141438,-0.03555592522025108,-0.09046129137277603,0.1829344928264618,0.018834173679351807,-0.15720321238040924,-0.1767273247241974,0.2923957109451294,0.005301895085722208,-0.0019301553256809711,-0.040255725383758545,-0.16618046164512634,-0.07959834486246109,-0.03709559887647629,-0.0027010045014321804,-0.006489383522421122,-0.11985603719949722,-0.10553286224603653,0.09226839244365692,-0.22298961877822876,-0.19448845088481903,-0.0733405128121376,-0.03676315397024155,0.06852328032255173],"L_params":[19.70580291748047,-0.8923153281211853,19.11014175415039]},{"anchors":[-0.5813115835189819,0.5952659249305725],"mixing_weights":[0.04233497753739357,-0.04988446831703186,0.10101382434368134,0.22401955723762512,0.0019808898214250803,-0.14319054782390594,0.0443129688501358,0.09558581560850143,0.016176750883460045,0.011687858030200005,0.09759186953306198,-0.0031011628452688456,-0.0027169606182724237,-0.03169875219464302,0.07636264711618423,-0.013475527055561543,0.034638334065675735,0.1363350749015808,0.0103507861495018,-0.06367150694131851,0.0389530286192894,-0.01586061529815197,0.042619507759809494,-0.1758769005537033,0.042222365736961365,-0.032788053154945374,0.022007610648870468,-0.08468667417764664,0.15545490384101868,0.006697801873087883,0.014195111580193043,0.0613749623298645,0.11461827158927917,-0.08824867010116577,0.034952592104673386,-0.03885721415281296,0.1315096616744995,-0.006210268475115299,-0.00873363297432661,-0.17047050595283508,0.017757724970579147,0.08923222124576569,-0.16336332261562347,0.050203848630189896,0.062358513474464417,0.12735405564308167,0.09678636491298676,-0.06087983772158623,0.07517602294683456,0.07963206619024277,0.02203373610973358,-0.008024693466722965,0.07853787392377853,0.09863350540399551,-0.22671735286712646,-0.1009150892496109,0.12148517370223999,-0.056890521198511124,-0.06470002233982086,-0.1306307315826416,-0.0724453404545784,0.009320984594523907,-0.02724730223417282,0.1175585463643074,0.18379561603069305,-0.03392094373703003,-0.07042570412158966,-0.3176437318325043,-0.14662671089172363,-0.008471193723380566,-0.11665192246437073,-0.14645032584667206,-0.06606696546077728,-0.03847599774599075,-0.032519057393074036,0.10453594475984573,-0.1568528413772583,-0.00245832372456789,0.007392629981040955,-0.07672691345214844,0.04548186436295509,0.024602333083748817,0.02053980529308319,-0.17532698810100555,0.12050100415945053,0.02447521686553955,-0.1268061101436615,0.008414698764681816,-0.01199391670525074,0.07438434660434723,-0.0019904528744518757,-0.019669193774461746,-0.039259519428014755,0.012742132879793644,0.24186629056930542,0.18757790327072144,0.12395426630973816,-0.06729831546545029,-0.030538998544216156,0.028766153380274773,0.009520784951746464,-0.1621095985174179,0.10826920717954636,0.13057269155979156,-0.25616922974586487,-0.1478714793920517,0.05255473032593727,0.05716390907764435,0.0269546527415514,-0.0044766562059521675,0.03949325531721115,0.11064209789037704,0.11538153886795044,0.014245754107832909,0.018965844064950943,-0.07780899852514267,-0.10230828821659088,-0.06564626097679138,-0.014546523801982403,0.10630123317241669,0.02170553430914879,-0.16783034801483154,-0.047090623527765274,0.10479365289211273,0.0138561325147748,0.0342320017516613,-0.027717499062418938,-0.11610804498195648,0.07230640947818756,0.00883862841874361,-0.005520560313016176,0.16186203062534332,-0.004974831361323595,-0.09926989674568176,-0.2271527796983719,0.22598372399806976,0.049926940351724625,-0.011049352586269379,0.0842684954404831,-0.0011049712775275111,0.222482830286026,0.19452501833438873,-0.11738832294940948,-0.04292500764131546,-0.1104733869433403,0.00909338891506195,-0.04026203975081444,-0.21091127395629883,-0.09063215553760529,0.11997006088495255,0.012853248976171017,0.06017850339412689,0.08545445650815964,-0.10564596205949783,0.1700955629348755,0.08210290223360062,-0.09602504968643188,0.16761068999767303,-0.0214991457760334,-0.036808811128139496,-0.01939740590751171,0.029779385775327682,0.09044396132230759,-0.05512135103344917,0.008859141729772091,0.015996042639017105,0.048410285264253616,-0.17180870473384857,-0.04315999895334244,-0.07096777856349945,-0.060391493141651154,-0.0526101179420948,-0.06126590073108673,-0.18548598885536194,-0.12456870824098587,-0.36318448185920715,-0.012099619023501873,0.004889787174761295,-0.03507334366440773,0.0019384004408493638,-0.08855470269918442,0.05129791423678398,-0.3015449643135071,-0.12233754247426987,0.02382619120180607,-0.20708467066287994,-0.044150833040475845,-0.029333872720599174,0.08017008006572723,-0.07048019766807556,0.1505950391292572,0.09824109822511673,0.018233032897114754,0.0036449600011110306,-0.01164181251078844,-0.21010105311870575,-0.11561276018619537,-0.01790480501949787,0.0757189467549324,0.20740540325641632,-0.018731843680143356,-0.14047473669052124,-0.1845964640378952,-0.007445261813700199,-0.013155597262084484,-0.04294680058956146,-0.014221048913896084,-0.11598823964595795,0.0038189864717423916,-0.0667988583445549,0.10908447951078415,-0.056542135775089264,-0.023416776210069656,0.15406940877437592,-0.06970497220754623,-0.0230751633644104,-0.05731017142534256,0.15932829678058624,0.1421438455581665,-0.07106946408748627,0.029186531901359558,-0.006992700044065714,0.0411590039730072,-0.1807786524295807,-0.06977753341197968,0.12979725003242493,0.1607164889574051,0.10559244453907013,0.1273983269929886,0.018621565774083138,-0.0012226150138303638,-0.09877455979585648,0.0597795806825161,0.18463867902755737,0.06387244910001755,0.06773775815963745,0.0682741329073906,-0.019531387835741043,0.09178207069635391,-0.30370697379112244,-0.11627433449029922,-0.14934484660625458,-0.05410304665565491,-0.041794970631599426,-0.11047323048114777,-0.049781933426856995,0.005401361268013716,0.13260871171951294,-0.18154360353946686,-0.3682665228843689,0.01566479727625847,0.014435222372412682,0.20172056555747986,-0.040558427572250366,0.013861777260899544,0.010789697989821434],"L_params":[15.899230003356934,-1.1408246755599976,16.34955406188965]},{"anchors":[-0.9787235260009766,0.43276679515838623],"mixing_weights":[-0.08577126264572144,-0.24158352613449097,0.0009222315275110304,-0.01825648918747902,0.25201931595802307,-0.1806057244539261,0.06652145087718964,0.32817158102989197,-0.14475148916244507,0.011866655200719833,-0.1188107281923294,0.08954132348299026,0.1096433475613594,0.14470475912094116,-0.0883476659655571,0.03523881733417511,-0.13402371108531952,0.1260194033384323,-0.03920185938477516,0.09137985110282898,-0.16484341025352478,-0.0843948945403099,-0.14315973222255707,-0.05165903642773628,0.04919108375906944,0.062457598745822906,0.09088783711194992,0.052175045013427734,-0.07816676050424576,-0.004348407033830881,-0.08829768747091293,-0.14058460295200348,0.1481960117816925,0.15142470598220825,-0.1324572116136551,-0.16986718773841858,0.01391269825398922,-0.03746118023991585,0.01896608993411064,-0.00559831690043211,-0.007594168186187744,0.16122382879257202,-0.05925804004073143,0.08328935503959656,-0.08696377277374268,0.03370624780654907,0.16230997443199158,0.1054491177201271,-0.201100155711174,0.08544041216373444,-0.05806452035903931,0.10797687619924545,0.01610882766544819,-0.11009649932384491,-0.0031241681426763535,-0.12807533144950867,-0.058835919946432114,-0.031031953170895576,-0.13494732975959778,-0.11223958432674408,0.029832594096660614,-0.0418488010764122,-0.02494736574590206,0.049051955342292786,-0.19224080443382263,0.006254863925278187,-0.1462932825088501,0.15289972722530365,0.0007612861227244139,-0.00512679060921073,-0.0766475573182106,-0.010143248364329338,0.05929611250758171,-0.01950719766318798,0.13227157294750214,0.018542369827628136,0.19031651318073273,-0.11492648720741272,0.12201104313135147,0.12435709685087204,0.020910777151584625,-0.06279965490102768,-0.17612919211387634,0.0337267629802227,-0.023273644968867302,-0.12359607219696045,0.13790716230869293,-0.14524689316749573,0.16792415082454681,-0.0073118130676448345,0.05906661972403526,0.06041951850056648,0.01903759129345417,-0.039129018783569336,-0.03310484439134598,0.14210757613182068,-0.1640961915254593,-0.1938384473323822,-0.11982450634241104,-0.06069415807723999,0.05636042356491089,0.0901089757680893,0.034962669014930725,-0.14866876602172852,-0.11956289410591125,-0.07699131220579147,0.17098960280418396,0.16489462554454803,-0.23001709580421448,-0.0922139585018158,0.05530998483300209,-0.05782919377088547,-0.027341367676854134,-0.1339389681816101,0.04189753159880638,0.07607396692037582,0.027233360335230827,-0.023580966517329216,0.007185717578977346,0.1344301551580429,0.06203145906329155,-0.06215139105916023,-0.09246809035539627,-0.11072184890508652,-0.00039048033067956567,-0.0011361036449670792,-0.00006428372580558062,0.03259160742163658,-0.043841227889060974,-0.09773336350917816,-0.08197800815105438,-0.05815679207444191,0.03358845412731171,-0.049924224615097046,-0.1376800537109375,0.06689425557851791,-0.07888875901699066,0.05892371013760567,-0.18652817606925964,-0.028109028935432434,-0.0624379999935627,0.19075116515159607,0.1587853729724884,0.042019885033369064,-0.007857730612158775,0.057443760335445404,0.0009701025555841625,0.03889776021242142,-0.09135878086090088,0.02726002223789692,0.01012873649597168,0.09567355364561081,0.06827670335769653,-0.06081157922744751,0.05855787917971611,-0.2018222063779831,0.09638498723506927,0.10890040546655655,-0.024869080632925034,0.07641530781984329,0.0009386863675899804,-0.013553082011640072,0.05213892459869385,0.09904568642377853,-0.1340484768152237,0.010113129392266273,-0.04911115765571594,-0.027980735525488853,-0.1433810144662857,0.11371441930532455,0.016963057219982147,-0.1163371130824089,-0.28795742988586426,0.02055748552083969,0.04274406656622887,0.10235463082790375,-0.08895346522331238,-0.08000738173723221,-0.11246170103549957,-0.21848942339420319,0.03511799871921539,0.037455733865499496,0.17999409139156342,-0.05664076656103134,-0.004656028002500534,-0.20508091151714325,-0.3371307849884033,0.04641525819897652,-0.23471567034721375,-0.20602265000343323,0.055375199764966965,0.10755457729101181,0.11919697374105453,-0.06800594925880432,-0.09108268469572067,-0.010874693281948566,0.040140945464372635,0.0803612470626831,0.06844641268253326,-0.051361389458179474,-0.015467454679310322,0.11378557235002518,0.04353035241365433,0.16895830631256104,-0.1402396857738495,0.05227559804916382,0.08685016632080078,0.12101028114557266,0.10943613201379776,-0.031311165541410446,0.016968224197626114,-0.059391848742961884,-0.050377845764160156,0.007507104426622391,-0.11540302634239197,0.2010412961244583,-0.034259431064128876,-0.1545477658510208,0.017796816304326057,0.07860810309648514,-0.029418885707855225,0.10253706574440002,-0.11238507181406021,0.03165794909000397,-0.11404020339250565,0.04242098703980446,0.14657685160636902,0.1599288135766983,0.05015629902482033,-0.16991408169269562,0.06586097925901413,0.07175538688898087,0.18340127170085907,0.08646652102470398,0.09657291322946548,-0.07559187710285187,-0.030528729781508446,-0.14809077978134155,-0.017838312312960625,-0.0426972471177578,0.1343517154455185,0.06835197657346725,0.16248945891857147,0.031515393406152725,-0.013093572109937668,-0.054851796478033066,-0.024555958807468414,-0.1266263723373413,-0.06111888214945793,-0.007293445989489555,0.19906936585903168,-0.046385258436203,0.09285713732242584,-0.16160425543785095,-0.10413361340761185,0.05451735481619835],"L_params":[22.592538833618164,-0.2690238356590271,20.19710350036621]},{"anchors":[-0.4769662916660309,0.6544674038887024],"mixing_weights":[-0.0887289047241211,-0.15317922830581665,-0.11277837306261063,-0.0032043801620602608,-0.0046213301829993725,0.1464373767375946,0.011797711253166199,0.05586830899119377,-0.1025460809469223,0.03694954887032509,-0.12517961859703064,0.2760840952396393,-0.019933782517910004,0.04692278802394867,-0.01820530742406845,0.05184786394238472,-0.09096375107765198,0.2588367164134979,-0.15897071361541748,-0.044348880648612976,0.11473095417022705,-0.1787843108177185,0.02599768340587616,0.13423344492912292,0.19963638484477997,-0.000489232421386987,0.08125601708889008,0.11309070885181427,-0.017992952838540077,-0.055859748274087906,-0.05288968235254288,0.23927639424800873,0.004434235394001007,-0.07404446601867676,0.07306189835071564,-0.01238339114934206,-0.03299800679087639,0.008976084180176258,-0.04503875598311424,-0.11887803673744202,-0.14076969027519226,-0.1372409611940384,0.1350940763950348,-0.027677170932292938,-0.0015096808783710003,-0.039651382714509964,-0.1558549553155899,-0.09091261774301529,-0.060295481234788895,0.044254254549741745,0.05391624569892883,0.1928456872701645,0.11877769231796265,-0.07934074848890305,-0.08105581253767014,0.037209656089544296,0.06888530403375626,0.04726940020918846,0.0843820795416832,0.03877837955951691,0.04793274402618408,-0.04258470609784126,-0.00696762278676033,-0.10332132130861282,-0.11593151092529297,0.05657942593097687,0.00885786209255457,-0.08478889614343643,0.0699949637055397,-0.06456401944160461,-0.1548091471195221,-0.16558930277824402,-0.011026903055608273,0.10289326310157776,-0.058639343827962875,-0.1350570023059845,-0.0927804633975029,0.29133981466293335,0.029529420658946037,0.17517979443073273,-0.025732483714818954,0.0030888314358890057,0.009259783662855625,-0.01816919445991516,-0.09097084403038025,-0.15945257246494293,0.051993995904922485,-0.0020526740700006485,0.022573288530111313,0.04897516965866089,-0.12126456201076508,-0.14381089806556702,0.07922516018152237,-0.26464322209358215,0.042177535593509674,-0.15399442613124847,-0.09003008902072906,-0.19432610273361206,0.04072548449039459,-0.10521817952394485,-0.024875150993466377,-0.022872556000947952,0.05330222100019455,0.147149920463562,-0.10654091835021973,0.16138939559459686,-0.02120218239724636,0.1847185492515564,0.02708377316594124,0.014539718627929688,0.00112240354064852,0.173971489071846,0.01612694375216961,0.09169162064790726,0.02027527615427971,-0.024554438889026642,-0.1782027631998062,0.1699480563402176,-0.14013344049453735,0.004902870859950781,-0.20017774403095245,0.03356016427278519,0.1906561255455017,-0.17081138491630554,-0.044184427708387375,-0.006752710323780775,-0.041728150099515915,-0.025833984836935997,0.11893822252750397,-0.03822154551744461,-0.027352815493941307,0.24878515303134918,0.09983893483877182,-0.11714309453964233,0.2529279589653015,0.04743722081184387,-0.011094027198851109,-0.11337684094905853,-0.14013874530792236,0.0406162366271019,0.03604454547166824,0.21225346624851227,0.1845911145210266,-0.07788634300231934,0.08878382295370102,-0.21469826996326447,-0.030921341851353645,-0.061198510229587555,0.20594008266925812,-0.049665216356515884,0.1267046332359314,0.09023255854845047,-0.14181604981422424,0.1022513136267662,0.06355299800634384,0.019445907324552536,-0.0009399168193340302,-0.06504931300878525,0.03826258331537247,0.0638117864727974,0.06752555072307587,-0.042215973138809204,-0.057116780430078506,0.024075480177998543,-0.1385056972503662,-0.06211649999022484,-0.11184578388929367,-0.13747674226760864,0.07972445338964462,0.019660010933876038,-0.0705229714512825,-0.10745790600776672,0.031337883323431015,0.04551215469837189,-0.25055932998657227,0.014798290096223354,-0.15759670734405518,-0.033805180341005325,-0.2176734358072281,-0.09876073896884918,-0.24069844186306,-0.00596936559304595,-0.06860001385211945,0.06625259667634964,0.015643438324332237,0.09080985933542252,-0.0791984423995018,-0.026622489094734192,0.09702810645103455,0.0353178009390831,0.014256288297474384,0.08994787931442261,-0.018485872074961662,0.022918701171875,0.07695845514535904,-0.11332689225673676,0.030413281172513962,0.02657211944460869,0.0023663686588406563,0.03901194408535957,-0.09309321641921997,-0.16470924019813538,-0.15950337052345276,0.024885091930627823,0.001864618738181889,-0.05898355320096016,0.03186117857694626,-0.0017475285567343235,-0.01082716416567564,0.24326133728027344,-0.1690981537103653,-0.039892878383398056,-0.2515024244785309,0.09297028183937073,-0.11284436285495758,0.07656525075435638,0.0636536180973053,0.03149028867483139,-0.04390311986207962,-0.036942008882761,-0.015568903647363186,0.033209428191185,0.13572226464748383,-0.12975294888019562,-0.10542164742946625,-0.026532743126153946,0.0040642498061060905,-0.20935150980949402,-0.2244313657283783,0.1416654884815216,0.06319849193096161,-0.009098431095480919,-0.03615309298038483,0.09166104346513748,-0.16220565140247345,-0.051381915807724,-0.12268954515457153,-0.14960572123527527,0.026942959055304527,0.1388913094997406,0.0456099659204483,-0.08110712468624115,-0.17021776735782623,0.08287834376096725,-0.06624940782785416,-0.10605750977993011,-0.1257353574037552,-0.04990983009338379,0.04580852761864662,0.2674780488014221,-0.08881496638059616,0.2059570997953415,-0.04735276475548744,-0.06389091163873672,0.09328841418027878,0.08394790440797806],"L_params":[20.23306655883789,-2.8406286239624023,14.198740005493164]},{"anchors":[0.1321062296628952,0.5080226063728333],"mixing_weights":[-0.005857976619154215,-0.12245653569698334,-0.041750188916921616,0.04723460599780083,-0.2050982117652893,-0.031319186091423035,0.0026986326556652784,0.23683208227157593,-0.0786830261349678,0.017619317397475243,-0.18298082053661346,0.04340842366218567,-0.07022459805011749,-0.1125166192650795,0.03853564336895943,0.032136593014001846,0.030744506046175957,0.02865755744278431,0.081972636282444,-0.1012130156159401,0.09864819794893265,-0.08628596365451813,-0.07395125180482864,0.037699054926633835,0.04268468916416168,0.03319317102432251,-0.02620117738842964,-0.019247258082032204,-0.0930853858590126,-0.1293160617351532,0.04188692569732666,0.04446845129132271,0.1399824172258377,0.08254183828830719,0.19079706072807312,-0.12059894949197769,0.0286417193710804,-0.03897811472415924,0.055955614894628525,-0.09126590192317963,-0.14130274951457977,-0.02007017284631729,0.05866963043808937,-0.13611452281475067,-0.05256396904587746,0.042325373739004135,-0.02080066315829754,-0.0215743500739336,-0.08270479738712311,-0.028872251510620117,0.07907385379076004,0.17122584581375122,0.19548416137695312,-0.06404991447925568,-0.018136657774448395,-0.09096002578735352,0.09994464367628098,-0.022983510047197342,-0.03724616393446922,0.06460538506507874,0.026244260370731354,0.025301862508058548,0.11373007297515869,0.05241779983043671,-0.02582668885588646,-0.16540440917015076,-0.06329742819070816,-0.11574112623929977,0.03169111907482147,0.01920153759419918,0.11910782754421234,0.0619649775326252,-0.14303596317768097,0.07381466776132584,-0.07860975712537766,-0.03184410184621811,-0.15060396492481232,-0.1131177470088005,0.038367703557014465,-0.029838114976882935,-0.19471031427383423,0.21578866243362427,0.03430880978703499,0.023483069613575935,0.065497986972332,0.0418517105281353,-0.05833151564002037,0.02365415170788765,-0.0708434209227562,0.027391688898205757,-0.06510291248559952,-0.17415675520896912,0.23873117566108704,-0.19207940995693207,0.046365413814783096,-0.0547981895506382,0.1089286282658577,0.07994259148836136,-0.012533418834209442,-0.04091689735651016,-0.14684458076953888,-0.06610270589590073,-0.05328678712248802,-0.012921582907438278,0.01079731434583664,0.14863288402557373,0.188596710562706,-0.035048436373472214,0.06663922220468521,0.04662349075078964,-0.05006374046206474,-0.25587934255599976,-0.06300681084394455,-0.04749935120344162,-0.09058430790901184,-0.044152382761240005,0.12168677896261215,-0.15921622514724731,0.2591712176799774,0.10489917546510696,-0.0018409816548228264,0.02372182346880436,-0.12037400901317596,0.007488417439162731,0.15633611381053925,-0.1407226324081421,-0.04524301737546921,-0.033100854605436325,0.1210898905992508,0.02561095543205738,-0.09150908887386322,-0.013147756457328796,0.1876235157251358,-0.0053992001339793205,0.07162175327539444,-0.013563761487603188,0.1904873549938202,0.03711969032883644,-0.08990146964788437,0.19784048199653625,-0.038215164095163345,-0.030764857307076454,0.13741764426231384,0.00012657571642193943,-0.1535872519016266,-0.01830410026013851,0.16211147606372833,-0.05381392687559128,-0.0048997425474226475,0.06265584379434586,0.06496775150299072,-0.08339850604534149,0.06674269586801529,0.08065371960401535,-0.08761466294527054,0.06625586748123169,-0.07771620154380798,-0.03664713725447655,-0.15022198855876923,0.03752778097987175,0.023902641609311104,0.047253139317035675,0.1313016712665558,0.04400310292840004,0.0707731619477272,-0.0074185654520988464,0.11054296046495438,0.021775225177407265,0.2644656300544739,0.12409628927707672,0.06873422116041183,0.06841087341308594,0.03205270692706108,0.09982310235500336,-0.0034379654098302126,-0.08157242834568024,-0.03951486572623253,0.014247603714466095,-0.018969722092151642,-0.08551900833845139,-0.10967370122671127,0.0005668498924933374,-0.026911437511444092,0.06347553431987762,-0.0514962337911129,-0.016238464042544365,0.03125910460948944,-0.027113262563943863,-0.02669272944331169,0.03657837212085724,0.05495632067322731,0.08677034825086594,-0.09054264426231384,-0.046168919652700424,0.0012351857731118798,0.15108251571655273,-0.06724176555871964,0.040605369955301285,-0.15286122262477875,0.08450634777545929,-0.055188972502946854,0.0315161757171154,-0.1605217456817627,-0.022354353219270706,0.13357308506965637,0.08610405027866364,0.10271501541137695,-0.027402885258197784,0.011713333427906036,0.022392410784959793,0.0071418751031160355,0.19758178293704987,0.07214952260255814,0.08884946256875992,0.17434349656105042,0.1528763324022293,-0.09774342179298401,-0.02011665143072605,0.0963234230875969,-0.14275605976581573,0.13683412969112396,0.1173737496137619,0.0007275761454366148,-0.16307787597179413,-0.01832272857427597,-0.016908586025238037,0.19737374782562256,-0.14765521883964539,0.08523096144199371,0.05276630446314812,-0.07283038645982742,0.13047240674495697,0.06273794919252396,-0.022682221606373787,0.10895460844039917,0.03953447937965393,-0.018501343205571175,0.031302738934755325,-0.050063639879226685,-0.029966061934828758,-0.021182723343372345,0.03849543258547783,0.05404779314994812,-0.014696959406137466,-0.17827291786670685,0.0550040677189827,0.036912769079208374,-0.11925535649061203,-0.011254741810262203,-0.10847706347703934,-0.023828011006116867,-0.10260429233312607,0.10116935521364212,0.08349620550870895,0.21464070677757263,-0.08426966518163681],"L_params":[22.328807830810547,1.2078157663345337,19.053983688354492]},{"anchors":[0.8132591843605042,0.5474767088890076],"mixing_weights":[-0.16170522570610046,-0.11569831520318985,0.05568527430295944,0.06506858021020889,-0.02571675181388855,0.14948423206806183,0.030976375564932823,-0.12462525069713593,0.030126184225082397,0.11691872030496597,-0.17525669932365417,0.04341842979192734,0.05944487452507019,-0.011430368758738041,-0.041236791759729385,0.28737232089042664,-0.02285751700401306,-0.012276474386453629,-0.14523130655288696,0.22801919281482697,0.05688503012061119,0.00590923149138689,-0.07159951329231262,-0.013330062851309776,-0.0415906198322773,-0.06019257754087448,0.010079209692776203,-0.02029133029282093,0.09813034534454346,0.0946713387966156,-0.0744248628616333,-0.054724160581827164,0.011999251320958138,-0.07170218229293823,0.001119184191338718,0.07145915925502777,-0.005222308915108442,-0.1450764536857605,-0.05373319610953331,-0.025441503152251244,-0.11334937810897827,0.02738802321255207,0.09252142906188965,0.21615181863307953,0.0178094282746315,0.129911407828331,0.13625754415988922,-0.09021161496639252,0.09611763805150986,-0.007386344019323587,-0.04660436138510704,0.050684504210948944,0.11148976534605026,0.13585789501667023,0.06664499640464783,-0.04358619451522827,0.028406409546732903,-0.0163011122494936,-0.14149071276187897,-0.042765893042087555,-0.12395493686199188,0.03458409383893013,0.08240481466054916,0.07312345504760742,0.022175753489136696,0.08548039197921753,0.0002799129288177937,-0.053519219160079956,-0.04569417983293533,-0.0639045387506485,-0.05647220090031624,0.1596682220697403,-0.18310563266277313,0.025954890996217728,-0.14968028664588928,0.18677276372909546,-0.0885128304362297,-0.07301060110330582,0.2060106098651886,0.004074426367878914,0.028563253581523895,-0.05763961747288704,-0.2030898630619049,-0.040363505482673645,0.22173240780830383,-0.07293687760829926,0.11141447722911835,-0.05546664446592331,0.1241789236664772,-0.002115422859787941,0.006224296521395445,-0.02006683684885502,0.04009844735264778,-0.07747916132211685,-0.05315432697534561,0.06422439962625504,0.05007176473736763,0.000857758626807481,-0.13951432704925537,-0.13001379370689392,0.02104939892888069,-0.018002605065703392,-0.11416953057050705,-0.07493613660335541,0.02160930633544922,0.09947330504655838,-0.061456676572561264,0.23280920088291168,-0.06637950986623764,0.0687284767627716,0.013082694262266159,0.07757822424173355,0.030347762629389763,-0.1375320851802826,0.2400292158126831,-0.012249690480530262,0.016646135598421097,-0.07031870633363724,0.18484137952327728,-0.03810188174247742,0.04158148169517517,0.015670834109187126,0.0011424599215388298,0.03924489766359329,0.023327888920903206,-0.03575994074344635,-0.09759275615215302,-0.053149715065956116,0.06946000456809998,0.032855793833732605,-0.09853611141443253,-0.0841461643576622,-0.08393348008394241,0.14980340003967285,-0.19482141733169556,-0.10186886787414551,0.09522462636232376,-0.00363354105502367,0.03994374722242355,-0.0018531586974859238,0.06453760713338852,-0.09813466668128967,0.07252422720193863,0.040210697799921036,-0.11331061273813248,-0.12438231706619263,-0.04253103956580162,0.0356716550886631,0.17025268077850342,0.16287823021411896,-0.01019587554037571,-0.02124199829995632,-0.04195380210876465,0.06816703081130981,0.09411440044641495,-0.033849384635686874,-0.09480900317430496,0.10745062679052353,-0.10219208151102066,-0.14377202093601227,0.07656790316104889,-0.019407153129577637,0.1302795112133026,0.03486648574471474,0.01346510462462902,0.1726059466600418,0.10070008784532547,-0.045604534447193146,-0.020750802010297775,0.14270280301570892,-0.20027846097946167,-0.1611325740814209,0.03253772109746933,-0.022855866700410843,-0.11241702735424042,0.09485115855932236,0.0814746767282486,-0.013128621503710747,-0.12876774370670319,0.0816677138209343,0.20419511198997498,-0.09133094549179077,-0.08828190714120865,-0.13393132388591766,-0.0013726106844842434,0.19232314825057983,0.02244267612695694,-0.12743401527404785,0.11235453933477402,0.13900601863861084,-0.08085503429174423,0.08082669973373413,-0.1455426812171936,0.04726410657167435,-0.08727909624576569,-0.022728141397237778,-0.08382982015609741,-0.11744120717048645,-0.05021732673048973,-0.13558433949947357,-0.10963930189609528,0.051649343222379684,-0.08295279741287231,0.18526971340179443,0.01329702977091074,-0.04323757812380791,0.05688147619366646,-0.13042758405208588,-0.1102251261472702,-0.20552639663219452,0.17856353521347046,-0.22179096937179565,0.008664341643452644,-0.11888431757688522,0.06380370259284973,0.020320145413279533,0.01980108767747879,0.11608212441205978,0.15221279859542847,-0.1637183427810669,0.013852126896381378,0.035886023193597794,-0.1510234922170639,-0.01322969514876604,-0.12759438157081604,-0.0982799381017685,0.1302773654460907,-0.11297577619552612,0.10190612822771072,0.030158668756484985,0.13765066862106323,0.005246049724519253,-0.04355765879154205,0.10289301723241806,0.08485808968544006,0.09085186570882797,0.062103521078825,0.023077746853232384,-0.10196021944284439,-0.025601675733923912,0.13435131311416626,-0.009928006678819656,0.19972263276576996,0.16401906311511993,-0.02021140418946743,-0.015574757009744644,-0.06273162364959717,0.18968522548675537,0.0477602481842041,-0.02162254974246025,0.09806957840919495,-0.01928037218749523,-0.12467531859874725,0.07568387687206268,-0.16667886078357697,-0.043926872313022614],"L_params":[17.703458786010742,-0.677929162979126,15.128080368041992]},{"anchors":[0.968908429145813,-0.870742678642273],"mixing_weights":[-0.03908633068203926,0.10263444483280182,0.005708931013941765,0.09922583401203156,-0.10251383483409882,0.08252492547035217,0.08777997642755508,-0.03299262747168541,-0.2696993052959442,0.07811548560857773,-0.08173655718564987,0.12781639397144318,0.035930801182985306,0.0368691012263298,0.10374148190021515,0.09041439741849899,0.06202311813831329,-0.16144146025180817,0.149367555975914,-0.11979340761899948,-0.07659664750099182,-0.16609854996204376,0.02921541966497898,0.17721594870090485,-0.050315991044044495,0.016526084393262863,-0.015604848973453045,-0.14581865072250366,0.07664110511541367,0.1764945089817047,0.12065815925598145,-0.22208735346794128,-0.1281517744064331,-0.06103990226984024,-0.004313057754188776,0.1510438770055771,0.17794284224510193,0.2849304974079132,-0.12021107971668243,-0.043906375765800476,0.09689254313707352,-0.06962894648313522,-0.0750848725438118,-0.1362430900335312,0.13697639107704163,-0.19381189346313477,0.05380895733833313,-0.13113434612751007,0.08906788378953934,-0.17335368692874908,0.27813634276390076,-0.1327841430902481,0.04231884703040123,0.021920951083302498,-0.1878284066915512,0.11316541582345963,-0.3914794325828552,0.2932260036468506,0.23401552438735962,-0.08017567545175552,-0.148847758769989,-0.03836855664849281,-0.32463306188583374,0.06744934618473053,-0.03072923794388771,-0.35152268409729004,-0.11273334920406342,0.2917620837688446,-0.0218654852360487,-0.12139568477869034,0.0827731192111969,0.09413225203752518,0.07684000581502914,-0.0747629702091217,0.1600574254989624,-0.05873124301433563,-0.26315802335739136,-0.10851661115884781,0.07579098641872406,-0.05643577501177788,-0.019947612658143044,-0.030139559879899025,-0.0058371638879179955,0.4204285442829132,-0.12006744742393494,-0.0903259888291359,-0.03720683977007866,-0.2381455898284912,0.13581472635269165,-0.016855383291840553,0.0604640357196331,0.07416845113039017,0.3225700259208679,-0.2082638144493103,0.10895213484764099,-0.16508375108242035,-0.10853903740644455,0.12394154071807861,-0.010765851475298405,-0.07746357470750809,-0.0881279855966568,0.14583410322666168,0.07595133036375046,0.23659493029117584,-0.11492815613746643,0.12852270901203156,0.019815443083643913,0.01533532328903675,0.15491250157356262,-0.027880067005753517,-0.1607939749956131,0.21245692670345306,0.23790697753429413,-0.08022721856832504,0.2323036640882492,-0.06899666041135788,-0.06593403965234756,-0.0712243914604187,0.10102972388267517,-0.24609637260437012,0.048847224563360214,-0.11380764842033386,-0.2556453049182892,-0.0010404654312878847,0.18025654554367065,0.2263687252998352,0.1223723441362381,0.09980731457471848,-0.05285793915390968,0.4792982339859009,0.035690996795892715,0.10467498004436493,-0.1457960456609726,0.05624738708138466,0.05807116627693176,0.06740269809961319,-0.24148771166801453,-0.07613878697156906,-0.017151707783341408,-0.07598559558391571,0.33748242259025574,-0.12755171954631805,-0.04657706990838051,0.08022364974021912,0.10358712077140808,0.13808326423168182,0.1813526451587677,0.16531845927238464,-0.09642113000154495,-0.10913681238889694,0.07772936671972275,-0.11902493238449097,-0.04529527202248573,0.07674779742956161,-0.22699366509914398,0.2563674747943878,0.06888304650783539,0.021333007141947746,-0.08810741454362869,0.1076747477054596,0.04941994696855545,0.054494865238666534,-0.05995696410536766,-0.13919907808303833,-0.17061303555965424,-0.027445774525403976,0.06354232877492905,-0.05857926234602928,-0.1618778109550476,0.2036747932434082,0.20466937124729156,0.0029825791716575623,-0.09868352860212326,0.18271251022815704,0.13541191816329956,-0.2925478518009186,0.10966368764638901,-0.30753281712532043,-0.2530580163002014,-0.07838905602693558,-0.1240459755063057,-0.02387235499918461,0.10112298280000687,-0.31342819333076477,-0.04341104254126549,-0.18838758766651154,-0.048566531389951706,-0.3008434772491455,-0.20746184885501862,-0.16463321447372437,0.08698614686727524,-0.2607688307762146,-0.28845396637916565,0.054072264581918716,-0.18211083114147186,0.10107151418924332,0.0001771023089531809,0.10783518850803375,0.023151550441980362,-0.07904218882322311,0.22144411504268646,0.0685896947979927,-0.0795835629105568,0.18972285091876984,0.03046870045363903,-0.03902311250567436,0.15820622444152832,-0.2613661289215088,0.31397417187690735,-0.06112374737858772,0.21064254641532898,0.18584775924682617,0.16543346643447876,0.003918251022696495,0.11233637481927872,0.1727062463760376,0.06777756661176682,0.32909780740737915,0.02955467812716961,0.16038449108600616,-0.007744265254586935,-0.34297776222229004,-0.1548113077878952,-0.1639370322227478,0.08564652502536774,-0.0978832021355629,-0.0431642048060894,-0.17272283136844635,-0.03362908214330673,0.08051588386297226,0.05492375046014786,0.19513897597789764,0.11683335155248642,0.10643605142831802,0.0016062470385804772,0.006525576114654541,-0.018683208152651787,0.041340868920087814,0.008134933188557625,0.05984030291438103,0.08053302764892578,-0.1023760586977005,0.015020080842077732,0.30359694361686707,0.09429779648780823,-0.09275853633880615,0.0012691052397713065,-0.00744372745975852,0.005094481632113457,0.1430101841688156,0.3068908751010895,-0.08874186128377914,-0.14506018161773682,0.07673472911119461,0.12567493319511414,0.004148825537413359],"L_params":[11.315634727478027,0.723452627658844,19.9739990234375]},{"anchors":[-0.007458111736923456,-0.14129000902175903],"mixing_weights":[0.12436122447252274,-0.037941839545965195,0.04738788306713104,-0.0631098747253418,0.16717474162578583,0.009017000906169415,-0.05145520716905594,0.024541854858398438,-0.026087915524840355,0.03589202091097832,0.05419326201081276,0.032605886459350586,0.22228826582431793,0.1307961642742157,0.12969833612442017,0.10011561214923859,-0.19738394021987915,0.04895418509840965,-0.027712397277355194,-0.01172739639878273,-0.07659966498613358,-0.0846763476729393,-0.04120943695306778,0.10666301101446152,-0.004014812409877777,-0.14441104233264923,0.023296164348721504,0.0039866603910923,-0.028454415500164032,-0.019353460520505905,-0.229132279753685,-0.058051712810993195,-0.04687478020787239,-0.0636565089225769,0.020397480577230453,0.0039155324921011925,-0.02651023492217064,0.019242653623223305,-0.2880019247531891,0.12548419833183289,-0.010726949200034142,0.1014891117811203,-0.05347399041056633,-0.07660458981990814,-0.04753069952130318,-0.04016174376010895,-0.043033417314291,-0.11382123827934265,0.03157162666320801,-0.08765164017677307,0.16764619946479797,0.07530584931373596,0.07618474215269089,0.011326372623443604,-0.06321734189987183,-0.046927303075790405,-0.005736466031521559,-0.019766585901379585,0.0052565657533705235,0.011955133639276028,0.1361168771982193,0.26680198311805725,-0.053295526653528214,0.021735699847340584,-0.02421908639371395,0.011586051434278488,0.040821775794029236,-0.11628129333257675,0.025874463841319084,0.02887064218521118,0.05330448970198631,0.07973574101924896,-0.1067989394068718,0.06172122806310654,0.05914634093642235,0.09562721848487854,0.08578204363584518,0.12767639756202698,0.14041711390018463,-0.03944319486618042,0.07207906246185303,-0.14346671104431152,0.14347732067108154,0.07673929631710052,-0.0008925243164412677,0.030082302168011665,-0.020226480439305305,-0.10730524361133575,0.02890920080244541,0.29148274660110474,-0.011252149008214474,-0.003494261298328638,0.008066096343100071,-0.13204991817474365,0.10796254873275757,-0.019611909985542297,-0.28992393612861633,-0.10589563101530075,0.11760883033275604,-0.00014671130338683724,-0.0005055386573076248,0.0454167015850544,0.16565269231796265,-0.09300383180379868,0.11594007909297943,0.09079304337501526,-0.031855687499046326,-0.1744915246963501,0.057243071496486664,-0.18662697076797485,0.06306573003530502,-0.1634880155324936,-0.12663127481937408,-0.0028717194218188524,0.12080617249011993,0.012321196496486664,-0.1145215705037117,0.0621768943965435,0.214291512966156,0.015186648815870285,0.34514886140823364,-0.01903698407113552,0.08211826533079147,-0.0444391667842865,0.11927692592144012,-0.1765882670879364,-0.1673872172832489,-0.07466760277748108,0.13669271767139435,-0.01666015014052391,0.036209963262081146,0.05596580728888512,0.05002569034695625,-0.04296165332198143,0.17741447687149048,-0.008700341917574406,-0.00513661652803421,-0.016015736386179924,-0.15420232713222504,0.06577581912279129,-0.006631425116211176,-0.025903446599841118,0.00039996925625018775,-0.3295537531375885,-0.1399921476840973,-0.06272657215595245,-0.03162049874663353,0.14260625839233398,0.19235551357269287,0.09102626144886017,-0.07150756567716599,0.07634736597537994,-0.12006814032793045,0.0018345752032473683,0.012296462431550026,-0.1636212319135666,0.0074737113900482655,-0.008987153880298138,0.10231469571590424,0.09429828077554703,-0.018087774515151978,-0.0034849573858082294,0.12014226615428925,-0.09782402217388153,0.022767670452594757,-0.08538351207971573,0.08347900956869125,0.08346185833215714,-0.04645901173353195,-0.05129539221525192,0.09911543875932693,-0.1431685835123062,0.17241398990154266,0.28217533230781555,0.14476390182971954,-0.001910955528728664,0.04130028188228607,-0.21487931907176971,-0.2103889435529709,-0.13615953922271729,0.09374009817838669,0.0966167077422142,0.004592370707541704,-0.025528179481625557,-0.08487670123577118,-0.16574254631996155,0.09374170005321503,-0.19395044445991516,0.037615980952978134,-0.059104129672050476,0.1681593656539917,-0.12282982468605042,0.05375209450721741,0.010679208673536777,-0.15093894302845,0.07415361702442169,0.011723964475095272,-0.00357466540299356,0.11794377118349075,-0.09234613180160522,0.05753657966852188,-0.04537589102983475,-0.0500144325196743,0.03639691695570946,0.11723148077726364,-0.1387465000152588,-0.028053903952240944,0.01716563105583191,0.11139795184135437,0.07664014399051666,0.007450554054230452,0.04361288249492645,0.21967338025569916,0.10041730105876923,-0.26457053422927856,0.03963429108262062,-0.06688409298658371,0.03308196738362312,0.05655822902917862,-0.003504885360598564,-0.13385075330734253,0.061734139919281006,0.1325085163116455,-0.030664721503853798,0.11517050862312317,0.006668211426585913,-0.1278124898672104,-0.0021374248899519444,-0.14447137713432312,0.15100860595703125,-0.27429044246673584,0.07375883311033249,-0.1562320590019226,0.16788926720619202,0.35162803530693054,0.12232386320829391,0.16249214112758636,0.11472784727811813,0.04368218407034874,-0.03984430432319641,0.00399222644045949,-0.08858934789896011,-0.021970730274915695,0.02363813854753971,-0.05789659172296524,0.06521569192409515,-0.0031049028038978577,-0.026389803737401962,-0.05277642607688904,-0.16666603088378906,0.14097584784030914,-0.010097727179527283,-0.010868688113987446,-0.06051678583025932,-0.17372913658618927,-0.2081506997346878],"L_params":[16.953472137451172,-0.04968045651912689,21.193937301635742]},{"anchors":[0.539820671081543,0.31206271052360535],"mixing_weights":[0.050841376185417175,-0.08461304008960724,-0.1123809888958931,0.11133810132741928,-0.058916639536619186,0.03618519753217697,-0.0272427536547184,-0.028374915942549706,0.12534816563129425,-0.09409940242767334,0.18988583981990814,-0.21149002015590668,0.16276593506336212,0.026488110423088074,-0.03430405631661415,0.015370480716228485,-0.04346505552530289,0.14966045320034027,0.06759324669837952,0.13079647719860077,-0.12700089812278748,-0.12928400933742523,-0.010181484743952751,0.03206038102507591,-0.07056405395269394,-0.12719473242759705,-0.020437302067875862,0.2222660332918167,-0.06607881188392639,0.1324954330921173,0.08832618594169617,0.08558648824691772,-0.020374136045575142,-0.10903200507164001,-0.05505327135324478,-0.09925054758787155,-0.08540946990251541,0.04205977916717529,-0.01075737178325653,-0.21048161387443542,-0.19831912219524384,-0.12278921902179718,-0.034718383103609085,0.06272756308317184,0.04603096842765808,-0.008487993851304054,-0.11392508447170258,0.03778590261936188,-0.16679304838180542,-0.03160341456532478,-0.05858279764652252,0.021335966885089874,-0.06407834589481354,0.09845126420259476,0.1115013137459755,-0.06932966411113739,-0.01814807951450348,-0.2120303213596344,0.13190686702728271,-0.06523049622774124,-0.1823962777853012,0.051980048418045044,-0.11739296466112137,0.12388856709003448,-0.07486950606107712,0.14987970888614655,-0.05143304541707039,0.013156924396753311,0.06011505052447319,0.029995255172252655,0.010005409829318523,-0.041397109627723694,0.09785574674606323,-0.04186084493994713,-0.006466495804488659,0.032388847321271896,-0.07253088057041168,0.11294211447238922,0.0980486124753952,0.025785405188798904,-0.11900822818279266,0.017311230301856995,-0.16431063413619995,-0.006638608407229185,0.09224651008844376,0.05450431630015373,-0.10132128745317459,0.17513900995254517,0.13840417563915253,0.043489664793014526,0.1767786145210266,-0.09368538856506348,0.004774987231940031,0.0032512182369828224,0.014822287485003471,-0.020569242537021637,0.06381043791770935,-0.019829679280519485,-0.04102710261940956,0.16388805210590363,0.08051178604364395,-0.06795302033424377,-0.3049654960632324,0.012749489396810532,0.0782739520072937,-0.10993865132331848,0.05489280819892883,0.08628273755311966,0.10700725764036179,0.011651293374598026,-0.09697649627923965,-0.06245581433176994,-0.009783833287656307,-0.0780554860830307,-0.027137568220496178,0.0507100485265255,0.014354771003127098,0.1831749826669693,0.04785401374101639,0.18898172676563263,0.08991033583879471,-0.03824124112725258,-0.10259056091308594,0.06383635848760605,0.20433443784713745,-0.16651464998722076,0.06365738064050674,0.15549251437187195,0.07725736498832703,-0.0743689239025116,0.22276288270950317,-0.01626441441476345,-0.18911604583263397,0.09955083578824997,-0.0012140274047851562,0.007284150924533606,-0.020935682579874992,0.0819171890616417,-0.08213413506746292,0.1265026479959488,0.09693931043148041,-0.06996210664510727,0.11484134942293167,-0.03651287406682968,-0.07123936712741852,0.19156841933727264,-0.22134260833263397,0.16097019612789154,0.08529840409755707,0.04522049054503441,-0.09668967872858047,-0.19085614383220673,0.2767784297466278,0.12986299395561218,0.16298846900463104,-0.17904174327850342,-0.048162318766117096,0.029864687472581863,0.07101771980524063,-0.04030056670308113,0.07868222147226334,0.22689169645309448,-0.28911516070365906,0.05078347399830818,0.04029193893074989,0.11253699660301208,-0.09398389607667923,-0.07760802656412125,0.12217849493026733,-0.1784748136997223,0.13462042808532715,-0.11581911891698837,0.052507005631923676,0.14466623961925507,-0.012881062924861908,-0.03769000247120857,-0.11473634093999863,0.02304302528500557,-0.12140180170536041,-0.02495861053466797,0.03131641820073128,-0.16755016148090363,0.17265819013118744,0.02357577346265316,-0.04497833177447319,-0.047356631606817245,0.07417428493499756,-0.13258673250675201,0.03556250035762787,-0.048451490700244904,0.032087478786706924,0.14226382970809937,0.0415671281516552,-0.11547750979661942,-0.04314958676695824,0.11991281807422638,-0.05570352077484131,-0.12685491144657135,0.025162912905216217,-0.10106989741325378,0.03947689011693001,0.06164761632680893,0.020459448918700218,-0.10301239043474197,-0.048851218074560165,0.024283021688461304,-0.03595059737563133,-0.032655395567417145,-0.09790702909231186,-0.12690983712673187,0.019448760896921158,0.0215472225099802,-0.052598968148231506,0.0007498589693568647,-0.06744154542684555,0.03356913849711418,0.012303675524890423,0.007658937480300665,0.08167829364538193,-0.008688298054039478,0.025797642767429352,0.15985511243343353,0.03718579187989235,-0.10775180906057358,-0.06405302882194519,-0.03488513082265854,0.07972949743270874,0.03597131371498108,-0.019583288580179214,0.04351973906159401,0.10850249230861664,0.16614623367786407,-0.01570046879351139,0.10463225841522217,-0.0010334625840187073,-0.020812399685382843,0.05357004702091217,-0.20921103656291962,-0.14869233965873718,0.08296438306570053,-0.09262064099311829,0.0755251869559288,0.04821605607867241,0.049617405980825424,0.060117144137620926,0.050291743129491806,-0.03194693103432655,0.1380196064710617,-0.04800580441951752,-0.11359012126922607,0.06469426304101944,-0.08890779316425323,0.028120970353484154,0.08459816128015518,0.017209084704518318,-0.015603389590978622],"L_params":[23.417041778564453,0.390367329120636,21.388574600219727]},{"anchors":[-0.4052075147628784,0.4926830530166626],"mixing_weights":[0.2339818924665451,-0.07053916901350021,-0.006283861119300127,0.12338842451572418,-0.15374338626861572,0.17587421834468842,-0.21117982268333435,-0.12610359489917755,-0.08606113493442535,-0.052795153111219406,0.05050864815711975,-0.13063740730285645,-0.06654033064842224,-0.13360561430454254,0.04826823249459267,-0.010160373523831367,0.09971442818641663,0.2005600929260254,-0.16376546025276184,-0.0050241281278431416,0.03654763475060463,0.06775543838739395,0.1971016377210617,0.15589232742786407,-0.014295690692961216,-0.04329540953040123,0.10882008075714111,0.15543398261070251,-0.016444865614175797,0.06691789627075195,0.09724640846252441,-0.1312972456216812,-0.020495528355240822,-0.0029397292528301477,-0.003507117507979274,-0.009413903579115868,0.10556749254465103,0.16817179322242737,-0.1752358227968216,0.016656333580613136,-0.010030286386609077,-0.05048350244760513,-0.10078471153974533,-0.043507181107997894,0.11474032700061798,0.03634107485413551,0.07078658044338226,0.15708127617835999,0.14120249450206757,-0.1451805680990219,0.05295360088348389,-0.09787025302648544,0.04829616844654083,0.07581226527690887,-0.24408617615699768,0.11318083107471466,0.05970247834920883,0.06649647653102875,-0.1004667580127716,0.023404456675052643,-0.05950683355331421,-0.022452551871538162,0.04601435735821724,-0.09521547704935074,0.07345117628574371,0.13106822967529297,0.1832132190465927,-0.1869332194328308,0.02925417572259903,0.1270865947008133,0.007098462898284197,0.1592007875442505,-0.18739400804042816,0.08711975812911987,-0.10193003714084625,-0.14922674000263214,0.05938440188765526,-0.032727453857660294,0.016712000593543053,-0.05833912268280983,-0.010081241838634014,0.05562584102153778,0.14546819031238556,-0.06051097437739372,0.013271433301270008,-0.050876352936029434,-0.07814077287912369,0.11552290618419647,-0.02769969217479229,-0.003350880229845643,0.04948468133807182,0.07793351262807846,-0.18051235377788544,-0.06693535298109055,-0.02853182889521122,-0.030572235584259033,0.08760243654251099,0.026147807016968727,-0.006055727601051331,-0.054488666355609894,0.002538668690249324,0.002600152976810932,-0.17908525466918945,0.13860157132148743,0.013386170379817486,-0.0021447257604449987,-0.07737189531326294,-0.1944276988506317,-0.07665996998548508,-0.006810595281422138,-0.022813748568296432,-0.08164381980895996,-0.02495361864566803,-0.14826476573944092,0.007815931923687458,0.12292889505624771,-0.018014976754784584,-0.07456925511360168,-0.01603012904524803,-0.028292186558246613,0.15571440756320953,0.05028929561376572,-0.08133212476968765,-0.10454732179641724,-0.1651248186826706,0.01330795232206583,0.0785045400261879,-0.0010574173647910357,0.013896116055548191,0.05524401366710663,-0.039030954241752625,0.004785532597452402,-0.18158498406410217,-0.11999566107988358,0.028621960431337357,-0.11014565080404282,-0.12195643037557602,0.09777221828699112,0.09286937117576599,-0.02639569342136383,0.02709193527698517,-0.09931869804859161,0.15130488574504852,0.08224142342805862,-0.14160647988319397,-0.09869696944952011,0.02335459552705288,-0.18617545068264008,0.18067313730716705,0.017709888517856598,-0.03939458727836609,-0.03563039004802704,0.0438898503780365,-0.03462492674589157,0.14254000782966614,0.16067861020565033,0.022321607917547226,0.21767841279506683,0.0720098465681076,0.03333384916186333,0.02226429618895054,0.0729188323020935,0.08737324923276901,-0.011526793241500854,-0.06677144020795822,0.04969365894794464,-0.007696457672864199,-0.14336247742176056,0.07048460841178894,0.04082181677222252,-0.06764328479766846,0.09325756132602692,0.03315635025501251,-0.002840014873072505,0.15003827214241028,-0.14455798268318176,0.30343249440193176,-0.0819772407412529,-0.04756290838122368,-0.1728421300649643,-0.08813484758138657,-0.12887625396251678,0.0027985493652522564,0.09286769479513168,-0.1681274175643921,-0.05306369811296463,-0.1182626485824585,-0.11080906540155411,0.1500694453716278,0.09240710735321045,-0.12357377260923386,-0.13963621854782104,0.0091650215908885,0.04242272675037384,-0.039742361754179,0.007313992362469435,-0.039814721792936325,0.06356123089790344,-0.18658789992332458,-0.1573064923286438,-0.07890862226486206,-0.0717465728521347,0.08203628659248352,-0.1611613780260086,0.15382084250450134,0.030084488913416862,0.0563611276447773,-0.19871242344379425,0.013641543686389923,0.13221485912799835,0.2722146809101105,-0.023118065670132637,-0.13911357522010803,-0.17139801383018494,-0.05656106024980545,0.029970793053507805,0.10569923371076584,0.013829197734594345,-0.16719375550746918,0.038062483072280884,0.038665104657411575,0.0006870627985335886,0.02994374744594097,-0.03733024001121521,-0.043594494462013245,0.12506026029586792,-0.11155909299850464,0.031989891082048416,0.02941335365176201,0.048709455877542496,0.13010655343532562,0.17915639281272888,0.03933892399072647,-0.16547346115112305,0.012619296088814735,-0.09408919513225555,-0.032343968749046326,0.06563407182693481,-0.03588924929499626,-0.05194071680307388,0.0013039708137512207,-0.06817933171987534,-0.0584951750934124,0.07329753786325455,0.054724957793951035,-0.07425272464752197,0.0853348821401596,0.09224763512611389,-0.0675409734249115,-0.0448874831199646,0.04123125225305557,-0.027867726981639862,-0.09342493861913681,-0.07694321870803833,0.12176208943128586,-0.05562778189778328],"L_params":[14.336723327636719,0.770097553730011,16.305644989013672]},{"anchors":[-0.17503130435943604,-0.28729650378227234],"mixing_weights":[0.046051427721977234,0.019150057807564735,-0.006834019441157579,0.11259637027978897,-0.005040851887315512,0.043356820940971375,0.009582586586475372,0.010655270889401436,0.009078922681510448,-0.0386735163629055,-0.1313018649816513,-0.13328811526298523,0.016213342547416687,-0.08223055303096771,-0.26358163356781006,0.013138338923454285,-0.02321694791316986,0.09778337180614471,-0.13388167321681976,0.06844646483659744,-0.17804498970508575,-0.09648066759109497,0.01003208663314581,0.031615883111953735,-0.13710865378379822,-0.08940582722425461,0.09140677005052567,-0.08078044652938843,0.004557515494525433,-0.06340669840574265,-0.039540909230709076,0.11398188769817352,0.035677142441272736,0.12117611616849899,0.009176960214972496,-0.06876713782548904,-0.09489364176988602,-0.02166891284286976,0.025646420195698738,-0.051451463252305984,-0.03685690090060234,-0.00434468500316143,-0.13184787333011627,-0.10553663223981857,-0.23584535717964172,0.11604528874158859,0.2314707487821579,-0.12061808258295059,-0.06595781445503235,0.1633596271276474,0.14572228491306305,-0.05185255780816078,-0.03694077581167221,0.19584207236766815,0.042662885040044785,-0.25785377621650696,0.03280442953109741,0.06540648639202118,0.1111164391040802,-0.08352410048246384,-0.025516832247376442,0.09497109800577164,0.183210089802742,0.06660878658294678,0.01166223082691431,0.00404921593144536,0.046849947422742844,0.05007677897810936,-0.029210077598690987,-0.006727442145347595,0.08593980222940445,-0.14646729826927185,-0.13564011454582214,0.05360839515924454,-0.04656819999217987,-0.05791468545794487,0.09743161499500275,-0.14580976963043213,0.03887148201465607,-0.01641685888171196,-0.12775182723999023,0.270058274269104,-0.10560273379087448,-0.08917754888534546,0.06746569275856018,-0.13372677564620972,0.08782518655061722,0.05303025245666504,-0.20434455573558807,-0.03417931869626045,-0.09171220660209656,0.1882004290819168,0.025234196335077286,-0.16443249583244324,0.08614926785230637,-0.017126962542533875,-0.15208224952220917,0.1110285073518753,0.005504752974957228,0.10227587074041367,-0.1738220751285553,-0.0013571643503382802,-0.17821381986141205,-0.19303160905838013,0.17416448891162872,0.1820220649242401,0.04631374403834343,-0.08392872661352158,0.1240464523434639,0.023608189076185226,-0.011221875436604023,-0.0767425075173378,0.016360346227884293,